{"learner":{"attributes":{"scikit_learn":"{\"_estimator_type\": \"regressor\"}"},"feature_names":[],"feature_types":[],"gradient_booster":{"model":{"gbtree_model_param":{"num_parallel_tree":"1","num_trees":"200"},"iteration_indptr":[0,1,2,3,4,5,6,7,8,9,10,11,12,13,14,15,16,17,18,19,20,21,22,23,24,25,26,27,28,29,30,31,32,33,34,35,36,37,38,39,40,41,42,43,44,45,46,47,48,49,50,51,52,53,54,55,56,57,58,59,60,61,62,63,64,65,66,67,68,69,70,71,72,73,74,75,76,77,78,79,80,81,82,83,84,85,86,87,88,89,90,91,92,93,94,95,96,97,98,99,100,101,102,103,104,105,106,107,108,109,110,111,112,113,114,115,116,117,118,119,120,121,122,123,124,125,126,127,128,129,130,131,132,133,134,135,136,137,138,139,140,141,142,143,144,145,146,147,148,149,150,151,152,153,154,155,156,157,158,159,160,161,162,163,164,165,166,167,168,169,170,171,172,173,174,175,176,177,178,179,180,181,182,183,184,185,186,187,188,189,190,191,192,193,194,195,196,197,198,199,200],"tree_info":[0,0,0,0,0,0,0,0,0,0,0,0,0,0,0,0,0,0,0,0,0,0,0,0,0,0,0,0,0,0,0,0,0,0,0,0,0,0,0,0,0,0,0,0,0,0,0,0,0,0,0,0,0,0,0,0,0,0,0,0,0,0,0,0,0,0,0,0,0,0,0,0,0,0,0,0,0,0,0,0,0,0,0,0,0,0,0,0,0,0,0,0,0,0,0,0,0,0,0,0,0,0,0,0,0,0,0,0,0,0,0,0,0,0,0,0,0,0,0,0,0,0,0,0,0,0,0,0,0,0,0,0,0,0,0,0,0,0,0,0,0,0,0,0,0,0,0,0,0,0,0,0,0,0,0,0,0,0,0,0,0,0,0,0,0,0,0,0,0,0,0,0,0,0,0,0,0,0,0,0,0,0,0,0,0,0,0,0,0,0,0,0,0,0,0,0,0,0,0,0],"trees":[{"base_weights":[-1.2940076E-7,-1.5067691E0,9.8265964E-1,-1.8014692E0,6.3878375E-1,8.4237677E-1,3.2374482E0,-2.1012263E0,-9.484193E-1,2.176315E-1,1.6277822E0,5.335331E-1,1.6563946E0,2.8492723E0,4.118341E0,-2.4277387E0,-1.8930718E0,-1.2369746E0,-6.7296755E-1,-1.5721084E-1,4.3650752E-1,1.438874E0,2.4065928E-1,1.0734055E-1,1.1310394E0,1.2613775E0,2.2383988E0,2.5193353E0,3.595604E0,3.3368533E0,3.564678E-1,-1.9732052E-1,-7.414088E-2,-1.1067789E-1,-1.9558123E-1,-1.0045878E-1,-7.1741547E-3,-2.2472449E-2,-9.871135E-2,-1.9850964E-2,4.5418777E-2,6.416379E-2,-1.7172424E-2,1.2790819E-1,5.752186E-2,-2.5228154E-2,3.2112718E-2,5.4242644E-2,1.1512788E-1,7.314166E-2,1.3084735E-1,1.5116306E-1,2.0354755E-1,1.6243084E-1,2.1960096E-1,1.0697784E-1,2.967115E-1,2.1860942E-1,3.3396503E-1],"categories":[],"categories_nodes":[],"categories_segments":[],"categories_sizes":[],"default_left":[0,0,0,0,0,0,0,0,0,0,0,0,0,0,0,0,0,0,0,0,0,0,0,0,0,0,0,0,0,0,0,0,0,0,0,0,0,0,0,0,0,0,0,0,0,0,0,0,0,0,0,0,0,0,0,0,0,0,0],"id":0,"left_children":[1,3,5,7,9,11,13,15,17,19,21,23,25,27,29,31,33,35,37,39,41,43,-1,45,47,49,51,53,55,57,-1,-1,-1,-1,-1,-1,-1,-1,-1,-1,-1,-1,-1,-1,-1,-1,-1,-1,-1,-1,-1,-1,-1,-1,-1,-1,-1,-1,-1],"loss_changes":[1.0288975E4,1.7355356E3,1.327666E3,6.147744E2,1.3793002E2,9.949287E2,7.238306E1,1.1665381E2,4.9162415E1,1.9266922E1,2.148877E1,7.3149567E2,2.475393E2,3.378772E1,4.385742E0,3.7923096E1,3.0418677E2,6.4736023E0,7.0906525E1,5.875616E0,3.54E1,9.09964E0,0E0,2.0870287E2,1.6592944E2,8.3064575E1,4.2048096E1,8.109314E0,8.088806E0,1.7530518E0,0E0,0E0,0E0,0E0,0E0,0E0,0E0,0E0,0E0,0E0,0E0,0E0,0E0,0E0,0E0,0E0,0E0,0E0,0E0,0E0,0E0,0E0,0E0,0E0,0E0,0E0,0E0,0E0,0E0],"parents":[2147483647,0,0,1,1,2,2,3,3,4,4,5,5,6,6,7,7,8,8,9,9,10,10,11,11,12,12,13,13,14,14,15,15,16,16,17,17,18,18,19,19,20,20,21,21,23,23,24,24,25,25,26,26,27,27,28,28,29,29],"right_children":[2,4,6,8,10,12,14,16,18,20,22,24,26,28,30,32,34,36,38,40,42,44,-1,46,48,50,52,54,56,58,-1,-1,-1,-1,-1,-1,-1,-1,-1,-1,-1,-1,-1,-1,-1,-1,-1,-1,-1,-1,-1,-1,-1,-1,-1,-1,-1,-1,-1],"split_conditions":[3.934613E-1,3.3257728E0,3.3257728E0,1.0386158E0,1.0386158E0,1.0386158E0,1.0386158E0,-5.496531E-1,-5.496531E-1,-5.496531E-1,1.962E1,8.347851E-1,8.378249E-1,8.624531E-1,7.276328E-1,2.6582313E-1,1.1535954E0,2.6582313E-1,1.1535954E0,-1.638038E-1,1.1535954E0,1.275256E0,2.4065928E-1,-5.496531E-1,-5.496531E-1,-5.496531E-1,-5.496531E-1,6.750329E-1,-7.507956E-1,-1.638038E-1,3.564678E-1,-1.9732052E-1,-7.414088E-2,-1.1067789E-1,-1.9558123E-1,-1.0045878E-1,-7.1741547E-3,-2.2472449E-2,-9.871135E-2,-1.9850964E-2,4.5418777E-2,6.416379E-2,-1.7172424E-2,1.2790819E-1,5.752186E-2,-2.5228154E-2,3.2112718E-2,5.4242644E-2,1.1512788E-1,7.314166E-2,1.3084735E-1,1.5116306E-1,2.0354755E-1,1.6243084E-1,2.1960096E-1,1.0697784E-1,2.967115E-1,2.1860942E-1,3.3396503E-1],"split_indices":[0,2,2,3,3,3,3,4,4,4,6,0,0,0,0,0,4,0,4,1,4,4,0,4,4,4,4,0,1,1,0,0,0,0,0,0,0,0,0,0,0,0,0,0,0,0,0,0,0,0,0,0,0,0,0,0,0,0,0],"split_type":[0,0,0,0,0,0,0,0,0,0,0,0,0,0,0,0,0,0,0,0,0,0,0,0,0,0,0,0,0,0,0,0,0,0,0,0,0,0,0,0,0,0,0,0,0,0,0,0,0,0,0,0,0,0,0,0,0,0,0],"sum_hessian":[6.947E3,2.742E3,4.205E3,2.411E3,3.31E2,3.96E3,2.45E2,1.783E3,6.28E2,2.33E2,9.8E1,2.872E3,1.088E3,1.73E2,7.2E1,6.9E2,1.093E3,3.05E2,3.23E2,8.6E1,1.47E2,8.8E1,1E1,1.677E3,1.195E3,6.5E2,4.38E2,1.23E2,5E1,2.5E1,4.7E1,6.72E2,1.8E1,5.7E2,5.23E2,3E2,5E0,1.91E2,1.32E2,7.7E1,9E0,9.4E1,5.3E1,7.1E1,1.7E1,6.88E2,9.89E2,4.85E2,7.1E2,3.39E2,3.11E2,2.08E2,2.3E2,4.2E1,8.1E1,3E0,4.7E1,1.7E1,8E0],"tree_param":{"num_deleted":"0","num_feature":"17","num_nodes":"59","size_leaf_vector":"1"}},{"base_weights":[3.0524575E-4,-1.3996917E0,8.96951E-1,-1.6735164E0,5.8272576E-1,7.675561E-1,2.97461E0,-1.9549434E0,-8.7834024E-1,1.9616075E-1,1.4958576E0,4.8388374E-1,1.5187281E0,2.6178057E0,3.7782063E0,-2.2462611E0,-1.768113E0,-1.1493896E0,-6.213549E-1,-1.4434029E-1,3.9634734E-1,1.3171589E0,2.2315681E-1,6.255364E-2,1.0043212E0,1.1834202E0,2.115329E0,2.3975136E0,2.9153517E-1,1.5692857E-1,3.881415E0,-1.8220869E-1,-8.7331675E-2,-1.0388867E-1,-1.8238796E-1,-8.66183E-2,-1.087812E-1,-2.068402E-2,-9.154907E-2,-8.5812256E-2,-5.9723775E-3,5.8676008E-2,-1.5824078E-2,1.17121615E-1,5.3175766E-2,-2.6530346E-2,2.6674937E-2,6.545106E-2,1.3415818E-1,6.909998E-2,1.21698774E-1,1.4218484E-1,1.934499E-1,1.4855143E-1,2.0825477E-1,2.534257E-1,3.3354765E-1],"categories":[],"categories_nodes":[],"categories_segments":[],"categories_sizes":[],"default_left":[0,0,0,0,0,0,0,0,0,0,0,0,0,0,0,0,0,0,0,0,0,0,0,0,0,0,0,0,0,0,0,0,0,0,0,0,0,0,0,0,0,0,0,0,0,0,0,0,0,0,0,0,0,0,0,0,0],"id":1,"left_children":[1,3,5,7,9,11,13,15,17,19,21,23,25,27,29,31,33,35,37,39,41,43,-1,45,47,49,51,53,-1,-1,55,-1,-1,-1,-1,-1,-1,-1,-1,-1,-1,-1,-1,-1,-1,-1,-1,-1,-1,-1,-1,-1,-1,-1,-1,-1,-1],"loss_changes":[8.723089E3,1.4736865E3,1.1365168E3,5.317837E2,1.1619157E2,8.4926807E2,6.121753E1,9.1819824E1,4.282065E1,1.5939362E1,1.8980026E1,6.3517975E2,2.16146E2,3.0831177E1,6.260376E0,2.2270264E1,2.55802E2,2.776947E0,6.0993362E1,5.5479527E0,2.9587568E1,7.459152E0,0E0,1.7116815E2,1.6093518E2,7.449457E1,3.582361E1,1.1511108E1,0E0,0E0,9.6936035E-1,0E0,0E0,0E0,0E0,0E0,0E0,0E0,0E0,0E0,0E0,0E0,0E0,0E0,0E0,0E0,0E0,0E0,0E0,0E0,0E0,0E0,0E0,0E0,0E0,0E0,0E0],"parents":[2147483647,0,0,1,1,2,2,3,3,4,4,5,5,6,6,7,7,8,8,9,9,10,10,11,11,12,12,13,13,14,14,15,15,16,16,17,17,18,18,19,19,20,20,21,21,23,23,24,24,25,25,26,26,27,27,30,30],"right_children":[2,4,6,8,10,12,14,16,18,20,22,24,26,28,30,32,34,36,38,40,42,44,-1,46,48,50,52,54,-1,-1,56,-1,-1,-1,-1,-1,-1,-1,-1,-1,-1,-1,-1,-1,-1,-1,-1,-1,-1,-1,-1,-1,-1,-1,-1,-1,-1],"split_conditions":[3.5039806E-1,3.3257728E0,3.3257728E0,1.0386158E0,1.0386158E0,1.0386158E0,1.0386158E0,-5.496531E-1,-5.496531E-1,-5.496531E-1,1.962E1,8.220179E-1,8.540391E-1,9.550461E-1,-2.1425377E-1,-1.0286707E0,1.1535954E0,1.6690809E0,1.1535954E0,-7.507956E-1,1.1535954E0,1.275256E0,2.2315681E-1,-5.496531E-1,1.0061167E0,-5.496531E-1,-5.496531E-1,6.750329E-1,2.9153517E-1,1.5692857E-1,7.276328E-1,-1.8220869E-1,-8.7331675E-2,-1.0388867E-1,-1.8238796E-1,-8.66183E-2,-1.087812E-1,-2.068402E-2,-9.154907E-2,-8.5812256E-2,-5.9723775E-3,5.8676008E-2,-1.5824078E-2,1.17121615E-1,5.3175766E-2,-2.6530346E-2,2.6674937E-2,6.545106E-2,1.3415818E-1,6.909998E-2,1.21698774E-1,1.4218484E-1,1.934499E-1,1.4855143E-1,2.0825477E-1,2.534257E-1,3.3354765E-1],"split_indices":[0,2,2,3,3,3,3,4,4,4,6,0,0,0,1,0,4,16,4,1,4,4,0,4,0,4,4,0,0,0,0,0,0,0,0,0,0,0,0,0,0,0,0,0,0,0,0,0,0,0,0,0,0,0,0,0,0],"split_type":[0,0,0,0,0,0,0,0,0,0,0,0,0,0,0,0,0,0,0,0,0,0,0,0,0,0,0,0,0,0,0,0,0,0,0,0,0,0,0,0,0,0,0,0,0,0,0,0,0,0,0,0,0,0,0,0,0],"sum_hessian":[6.947E3,2.712E3,4.235E3,2.383E3,3.29E2,3.988E3,2.47E2,1.759E3,6.24E2,2.32E2,9.7E1,2.896E3,1.092E3,1.74E2,7.3E1,6.83E2,1.076E3,3.02E2,3.22E2,8.6E1,1.46E2,8.7E1,1E1,1.601E3,1.295E3,7.01E2,3.91E2,1.46E2,2.8E1,5E0,6.8E1,6.64E2,1.9E1,5.63E2,5.13E2,2.34E2,6.8E1,1.91E2,1.31E2,5E0,8.1E1,9.3E1,5.3E1,7E1,1.7E1,6.52E2,9.49E2,1.016E3,2.79E2,3.62E2,3.39E2,1.88E2,2.03E2,4.3E1,1.03E2,2.3E1,4.5E1],"tree_param":{"num_deleted":"0","num_feature":"17","num_nodes":"57","size_leaf_vector":"1"}},{"base_weights":[5.1101105E-4,-1.2357211E0,8.610757E-1,-1.4739105E0,5.522505E-1,7.4067533E-1,2.7759633E0,-1.7204665E0,-7.645497E-1,2.032046E-1,1.3857927E0,4.7884464E-1,1.424618E0,2.4456027E0,3.5072691E0,-1.8135335E0,-4.4189534E-1,-8.205189E-1,2.7526045E-1,1.03653096E-1,7.97465E-1,1.2218089E0,2.069272E-1,1.559537E-1,1.0211889E0,1.0755365E0,1.8811643E0,2.2651768E0,2.8002188E-1,3.022306E0,3.1579593E-1,-1.6709355E-1,-1.3107668E-1,-6.737598E-2,-1.3265675E-2,-8.514659E-2,-4.709241E-2,2.3947714E-3,4.1506033E-2,-2.675914E-2,1.9771786E-2,4.3792166E-2,9.682374E-2,1.0853381E-1,4.9158033E-2,-1.6267942E-2,3.2632623E-2,4.8259925E-2,1.0414057E-1,6.1683867E-2,1.12632856E-1,1.4458397E-1,2.477659E-1,1.5160455E-1,2.0079774E-1,1.8722813E-1,2.7159637E-1],"categories":[],"categories_nodes":[],"categories_segments":[],"categories_sizes":[],"default_left":[0,0,0,0,0,0,0,0,0,0,0,0,0,0,0,0,0,0,0,0,0,0,0,0,0,0,0,0,0,0,0,0,0,0,0,0,0,0,0,0,0,0,0,0,0,0,0,0,0,0,0,0,0,0,0,0,0],"id":2,"left_children":[1,3,5,7,9,11,13,15,17,19,21,23,25,27,29,31,33,35,37,39,41,43,-1,45,47,49,51,53,-1,55,-1,-1,-1,-1,-1,-1,-1,-1,-1,-1,-1,-1,-1,-1,-1,-1,-1,-1,-1,-1,-1,-1,-1,-1,-1,-1,-1],"loss_changes":[7.392747E3,1.2154121E3,9.4252026E2,4.3890088E2,9.747575E1,6.898391E2,4.9888428E1,2.2135791E2,3.8112335E1,1.3997305E1,1.6333923E1,4.8842017E2,1.6802686E2,2.4420532E1,3.6530151E0,8.039258E1,1.4006115E1,3.4309967E1,2.0160635E0,1.2971203E1,2.847435E0,6.4561157E0,0E0,1.5850671E2,1.2128308E2,6.0345276E1,3.5806274E1,8.652771E0,0E0,1.9656372E0,0E0,0E0,0E0,0E0,0E0,0E0,0E0,0E0,0E0,0E0,0E0,0E0,0E0,0E0,0E0,0E0,0E0,0E0,0E0,0E0,0E0,0E0,0E0,0E0,0E0,0E0,0E0],"parents":[2147483647,0,0,1,1,2,2,3,3,4,4,5,5,6,6,7,7,8,8,9,9,10,10,11,11,12,12,13,13,14,14,15,15,16,16,17,17,18,18,19,19,20,20,21,21,23,23,24,24,25,25,26,26,27,27,29,29],"right_children":[2,4,6,8,10,12,14,16,18,20,22,24,26,28,30,32,34,36,38,40,42,44,-1,46,48,50,52,54,-1,56,-1,-1,-1,-1,-1,-1,-1,-1,-1,-1,-1,-1,-1,-1,-1,-1,-1,-1,-1,-1,-1,-1,-1,-1,-1,-1,-1],"split_conditions":[4.685141E-1,3.3257728E0,3.3257728E0,1.0386158E0,1.0386158E0,1.0386158E0,1.0386158E0,2.6582313E-1,-1.0286707E0,-1.6138358E-1,1.962E1,8.60435E-1,8.29904E-1,9.760442E-1,8.268649E-1,-5.496531E-1,-5.496531E-1,-5.496531E-1,-5.496531E-1,-6.713137E-1,1.8031058E-1,1.275256E0,2.069272E-1,-5.496531E-1,-5.496531E-1,-5.496531E-1,1.1043447E0,-5.496531E-1,2.8002188E-1,-5.496531E-1,3.1579593E-1,-1.6709355E-1,-1.3107668E-1,-6.737598E-2,-1.3265675E-2,-8.514659E-2,-4.709241E-2,2.3947714E-3,4.1506033E-2,-2.675914E-2,1.9771786E-2,4.3792166E-2,9.682374E-2,1.0853381E-1,4.9158033E-2,-1.6267942E-2,3.2632623E-2,4.8259925E-2,1.0414057E-1,6.1683867E-2,1.12632856E-1,1.4458397E-1,2.477659E-1,1.5160455E-1,2.0079774E-1,1.8722813E-1,2.7159637E-1],"split_indices":[0,2,2,3,3,3,3,0,0,1,6,0,0,0,0,4,4,4,4,4,4,4,0,4,4,4,0,4,0,4,0,0,0,0,0,0,0,0,0,0,0,0,0,0,0,0,0,0,0,0,0,0,0,0,0,0,0],"split_type":[0,0,0,0,0,0,0,0,0,0,0,0,0,0,0,0,0,0,0,0,0,0,0,0,0,0,0,0,0,0,0,0,0,0,0,0,0,0,0,0,0,0,0,0,0,0,0,0,0,0,0,0,0,0,0,0,0],"sum_hessian":[6.947E3,2.851E3,4.096E3,2.516E3,3.35E2,3.855E3,2.41E2,1.866E3,6.5E2,2.37E2,9.8E1,2.789E3,1.066E3,1.69E2,7.2E1,1.739E3,1.27E2,6.17E2,3.3E1,2.04E2,3.3E1,8.8E1,1E1,1.749E3,1.04E3,6.06E2,4.6E2,1.47E2,2.2E1,3.8E1,3.4E1,6.72E2,1.067E3,5.1E1,7.6E1,2.99E2,3.18E2,1.7E1,1.6E1,5E1,1.54E2,2.2E1,1.1E1,7.1E1,1.7E1,7.21E2,1.028E3,4.19E2,6.21E2,3.18E2,2.88E2,4.36E2,2.4E1,6.2E1,8.5E1,1.6E1,2.2E1],"tree_param":{"num_deleted":"0","num_feature":"17","num_nodes":"57","size_leaf_vector":"1"}},{"base_weights":[7.8297075E-4,-1.1368524E0,7.927125E-1,-1.3561832E0,5.0955343E-1,6.8161196E-1,2.5597005E0,-1.5830319E0,-7.0352143E-1,1.8750982E-1,1.2786124E0,4.4059744E-1,1.3111798E0,2.2536747E0,3.237299E0,-1.668622E0,-4.071737E-1,-7.550914E-1,2.5453097E-1,9.532692E-2,7.378035E-1,1.1258359E0,1.9187799E-1,6.499432E-2,8.400444E-1,9.1508377E-1,1.6575474E0,1.9825262E0,2.8474813E0,2.2917956E-1,3.8005805E0,-1.537459E-1,-1.20600365E-1,-6.208955E-2,-1.2218209E-2,-7.835758E-2,-4.3336827E-2,2.2138404E-3,3.8380887E-2,3.0982604E-2,-9.513657E-3,4.0441107E-2,8.972333E-2,9.997169E-2,4.5443863E-2,-2.1465737E-2,2.3862254E-2,5.8324885E-2,1.4304568E-1,5.116589E-2,9.824417E-2,1.1817202E-1,1.6866621E-1,1.2740454E-1,1.715058E-1,7.7301994E-2,2.3559408E-1,1.1294908E-1,3.2406133E-1],"categories":[],"categories_nodes":[],"categories_segments":[],"categories_sizes":[],"default_left":[0,0,0,0,0,0,0,0,0,0,0,0,0,0,0,0,0,0,0,0,0,0,0,0,0,0,0,0,0,0,0,0,0,0,0,0,0,0,0,0,0,0,0,0,0,0,0,0,0,0,0,0,0,0,0,0,0,0,0],"id":3,"left_children":[1,3,5,7,9,11,13,15,17,19,21,23,25,27,29,31,33,35,37,39,41,43,-1,45,47,49,51,53,55,-1,57,-1,-1,-1,-1,-1,-1,-1,-1,-1,-1,-1,-1,-1,-1,-1,-1,-1,-1,-1,-1,-1,-1,-1,-1,-1,-1,-1,-1],"loss_changes":[6.2605425E3,1.0305693E3,8.025513E2,3.7154248E2,8.297755E1,5.845123E2,4.2885864E1,1.8721875E2,3.2355988E1,1.2002853E1,1.4237473E1,4.1853894E2,1.4486987E2,2.172644E1,4.4315796E0,6.8086426E1,1.1897692E1,2.9058105E1,1.7239621E0,1.2868969E1,2.4637508E0,5.43647E0,0E0,1.1197271E2,1.4094727E2,4.2327515E1,4.3075073E1,4.133911E0,6.5033875E0,0E0,9.819153E0,0E0,0E0,0E0,0E0,0E0,0E0,0E0,0E0,0E0,0E0,0E0,0E0,0E0,0E0,0E0,0E0,0E0,0E0,0E0,0E0,0E0,0E0,0E0,0E0,0E0,0E0,0E0,0E0],"parents":[2147483647,0,0,1,1,2,2,3,3,4,4,5,5,6,6,7,7,8,8,9,9,10,10,11,11,12,12,13,13,14,14,15,15,16,16,17,17,18,18,19,19,20,20,21,21,23,23,24,24,25,25,26,26,27,27,28,28,30,30],"right_children":[2,4,6,8,10,12,14,16,18,20,22,24,26,28,30,32,34,36,38,40,42,44,-1,46,48,50,52,54,56,-1,58,-1,-1,-1,-1,-1,-1,-1,-1,-1,-1,-1,-1,-1,-1,-1,-1,-1,-1,-1,-1,-1,-1,-1,-1,-1,-1,-1,-1],"split_conditions":[4.685141E-1,3.3257728E0,3.3257728E0,1.0386158E0,1.0386158E0,1.0386158E0,1.0386158E0,2.6582313E-1,-1.0286707E0,-1.6138358E-1,1.962E1,8.138666E-1,7.866836E-1,8.624531E-1,6.66953E-1,-5.496531E-1,-5.496531E-1,-5.496531E-1,-5.496531E-1,1.6690809E0,1.8031058E-1,1.275256E0,1.9187799E-1,-5.496531E-1,1.0629833E0,-5.496531E-1,9.505313E-1,6.750329E-1,-7.507956E-1,2.2917956E-1,5.030061E-1,-1.537459E-1,-1.20600365E-1,-6.208955E-2,-1.2218209E-2,-7.835758E-2,-4.3336827E-2,2.2138404E-3,3.8380887E-2,3.0982604E-2,-9.513657E-3,4.0441107E-2,8.972333E-2,9.997169E-2,4.5443863E-2,-2.1465737E-2,2.3862254E-2,5.8324885E-2,1.4304568E-1,5.116589E-2,9.824417E-2,1.1817202E-1,1.6866621E-1,1.2740454E-1,1.715058E-1,7.7301994E-2,2.3559408E-1,1.1294908E-1,3.2406133E-1],"split_indices":[0,2,2,3,3,3,3,0,0,1,6,0,0,0,4,4,4,4,4,16,4,4,0,4,0,4,0,0,1,0,0,0,0,0,0,0,0,0,0,0,0,0,0,0,0,0,0,0,0,0,0,0,0,0,0,0,0,0,0],"split_type":[0,0,0,0,0,0,0,0,0,0,0,0,0,0,0,0,0,0,0,0,0,0,0,0,0,0,0,0,0,0,0,0,0,0,0,0,0,0,0,0,0,0,0,0,0,0,0,0,0,0,0,0,0,0,0,0,0,0,0],"sum_hessian":[6.947E3,2.851E3,4.096E3,2.516E3,3.35E2,3.855E3,2.41E2,1.866E3,6.5E2,2.37E2,9.8E1,2.789E3,1.066E3,1.69E2,7.2E1,1.739E3,1.27E2,6.17E2,3.3E1,2.04E2,3.3E1,8.8E1,1E1,1.438E3,1.351E3,4.99E2,5.67E2,1.19E2,5E1,4.7E1,2.5E1,6.72E2,1.067E3,5.1E1,7.6E1,2.99E2,3.18E2,1.7E1,1.6E1,8.6E1,1.18E2,2.2E1,1.1E1,7.1E1,1.7E1,5.92E2,8.46E2,1.211E3,1.4E2,2.67E2,2.32E2,4.08E2,1.59E2,3.8E1,8.1E1,3E0,4.7E1,3E0,2.2E1],"tree_param":{"num_deleted":"0","num_feature":"17","num_nodes":"59","size_leaf_vector":"1"}},{"base_weights":[1.0049287E-3,-1.0458834E0,7.297637E-1,-1.2478592E0,4.7024438E-1,6.27249E-1,2.3602054E0,-1.4565761E0,-6.4736426E-1,1.7314631E-1,1.1797303E0,4.054227E-1,1.2066942E0,2.0769796E0,2.987441E0,-1.5352899E0,-3.751805E-1,-6.9488096E-1,2.353623E-1,-1.0011632E-1,3.370422E-1,1.0374029E0,2.22404E0,-5.5740133E-2,6.8758744E-1,9.431617E-1,1.6580752E0,1.8955973E0,2.893507E0,2.5511627E0,2.7105796E-1,-1.1196839E-1,-1.4878286E-1,-5.7217915E-2,-1.1253463E-2,-7.2109856E-2,-3.9880745E-2,1.0483797E-3,3.4575723E-2,-1.3738107E-2,7.448362E-2,5.089104E-2,-1.4856471E-2,1.02849565E-1,6.129061E-2,5.024475E-2,1.8566658E-1,-2.8331548E-2,1.2594153E-2,4.4096354E-2,1.0690376E-1,5.4900277E-2,9.709142E-2,1.0755699E-1,1.5524003E-1,1.2477803E-1,1.6871527E-1,1.09853745E-1,2.4128929E-1,1.558751E-1,2.3085873E-1],"categories":[],"categories_nodes":[],"categories_segments":[],"categories_sizes":[],"default_left":[0,0,0,0,0,0,0,0,0,0,0,0,0,0,0,0,0,0,0,0,0,0,0,0,0,0,0,0,0,0,0,0,0,0,0,0,0,0,0,0,0,0,0,0,0,0,0,0,0,0,0,0,0,0,0,0,0,0,0,0,0],"id":4,"left_children":[1,3,5,7,9,11,13,15,17,19,21,23,25,27,29,31,33,35,37,39,41,43,45,47,49,51,53,55,57,59,-1,-1,-1,-1,-1,-1,-1,-1,-1,-1,-1,-1,-1,-1,-1,-1,-1,-1,-1,-1,-1,-1,-1,-1,-1,-1,-1,-1,-1,-1,-1],"loss_changes":[5.3015947E3,8.7392944E2,6.833098E2,3.1452124E2,7.062015E1,4.9514624E2,3.6786255E1,1.5834424E2,2.7469269E1,1.0692961E1,1.24075165E1,3.63084E2,1.2535962E2,1.9692688E1,4.1203613E0,7.40083E1,1.010667E1,2.4610107E1,1.4817644E0,6.805621E0,2.3414553E1,5.0077515E0,2.4163818E-1,6.74823E1,1.5241016E2,4.61416E1,3.211133E1,6.885803E0,1.2641296E0,2.2418518E0,0E0,0E0,0E0,0E0,0E0,0E0,0E0,0E0,0E0,0E0,0E0,0E0,0E0,0E0,0E0,0E0,0E0,0E0,0E0,0E0,0E0,0E0,0E0,0E0,0E0,0E0,0E0,0E0,0E0,0E0,0E0],"parents":[2147483647,0,0,1,1,2,2,3,3,4,4,5,5,6,6,7,7,8,8,9,9,10,10,11,11,12,12,13,13,14,14,15,15,16,16,17,17,18,18,19,19,20,20,21,21,22,22,23,23,24,24,25,25,26,26,27,27,28,28,29,29],"right_children":[2,4,6,8,10,12,14,16,18,20,22,24,26,28,30,32,34,36,38,40,42,44,46,48,50,52,54,56,58,60,-1,-1,-1,-1,-1,-1,-1,-1,-1,-1,-1,-1,-1,-1,-1,-1,-1,-1,-1,-1,-1,-1,-1,-1,-1,-1,-1,-1,-1,-1,-1],"split_conditions":[4.685141E-1,3.3257728E0,3.3257728E0,1.0386158E0,1.0386158E0,1.0386158E0,1.0386158E0,2.6582313E-1,-1.0286707E0,-5.496531E-1,1.962E1,7.553223E-1,8.540391E-1,9.550461E-1,8.268649E-1,1.1535954E0,-5.496531E-1,-5.496531E-1,-6.713137E-1,2.6582313E-1,1.1535954E0,1.6690809E0,-1.4581233E0,-5.496531E-1,9.983853E-1,-5.496531E-1,-5.496531E-1,-5.496531E-1,-1.0362955E0,-5.496531E-1,2.7105796E-1,-1.1196839E-1,-1.4878286E-1,-5.7217915E-2,-1.1253463E-2,-7.2109856E-2,-3.9880745E-2,1.0483797E-3,3.4575723E-2,-1.3738107E-2,7.448362E-2,5.089104E-2,-1.4856471E-2,1.02849565E-1,6.129061E-2,5.024475E-2,1.8566658E-1,-2.8331548E-2,1.2594153E-2,4.4096354E-2,1.0690376E-1,5.4900277E-2,9.709142E-2,1.0755699E-1,1.5524003E-1,1.2477803E-1,1.6871527E-1,1.09853745E-1,2.4128929E-1,1.558751E-1,2.3085873E-1],"split_indices":[0,2,2,3,3,3,3,0,0,4,6,0,0,0,0,4,4,4,4,0,4,16,0,4,0,4,4,4,4,4,0,0,0,0,0,0,0,0,0,0,0,0,0,0,0,0,0,0,0,0,0,0,0,0,0,0,0,0,0,0,0],"split_type":[0,0,0,0,0,0,0,0,0,0,0,0,0,0,0,0,0,0,0,0,0,0,0,0,0,0,0,0,0,0,0,0,0,0,0,0,0,0,0,0,0,0,0,0,0,0,0,0,0,0,0,0,0,0,0,0,0,0,0,0,0],"sum_hessian":[6.947E3,2.851E3,4.096E3,2.516E3,3.35E2,3.855E3,2.41E2,1.866E3,6.5E2,2.37E2,9.8E1,2.789E3,1.066E3,1.69E2,7.2E1,1.739E3,1.27E2,6.17E2,3.3E1,8.9E1,1.48E2,8.8E1,1E1,1.059E3,1.73E3,6.75E2,3.91E2,1.41E2,2.8E1,3.8E1,3.4E1,1.23E3,5.09E2,5.1E1,7.6E1,2.99E2,3.18E2,1.6E1,1.7E1,8.4E1,5E0,9.4E1,5.4E1,4.4E1,4.4E1,1E0,9E0,4.41E2,6.18E2,1.431E3,2.99E2,3.48E2,3.27E2,1.88E2,2.03E2,5.8E1,8.3E1,3E0,2.5E1,1.6E1,2.2E1],"tree_param":{"num_deleted":"0","num_feature":"17","num_nodes":"61","size_leaf_vector":"1"}},{"base_weights":[1.2042705E-3,-1.0031981E0,6.4448625E-1,-1.1996484E0,4.1904587E-1,5.504366E-1,2.1546462E0,-1.4011482E0,-6.3030547E-1,1.3776374E-1,1.0835325E0,6.8204135E-2,7.9737663E-1,1.8936812E0,2.7426763E0,-1.2764428E0,-1.7009664E0,-8.2563573E-1,-4.4511852E-1,-1.3156947E-1,2.9622787E-1,9.482157E-1,2.067563E0,-1.3646927E-1,6.1790377E-1,5.9579027E-1,1.3264493E0,1.6572444E0,2.4360518E0,2.404588E0,3.274355E0,-1.3109896E-1,-6.678411E-2,-1.3650443E-1,4.1518476E-2,-6.1113685E-2,-8.190863E-2,-8.76938E-3,-7.4379854E-2,-7.6757364E-2,-5.5509666E-3,4.6565313E-2,-1.654629E-2,9.480446E-2,5.4755416E-2,4.8234977E-2,1.7229854E-1,6.693791E-4,-4.5775227E-2,2.686059E-2,7.2479144E-2,1.9081356E-2,6.7425996E-2,9.454931E-2,1.4374687E-1,1.0449111E-1,1.4603458E-1,6.2846966E-2,2.0182715E-1,1.2194044E-1,2.0120147E-1,9.232059E-2,2.800598E-1],"categories":[],"categories_nodes":[],"categories_segments":[],"categories_sizes":[],"default_left":[0,0,0,0,0,0,0,0,0,0,0,0,0,0,0,0,0,0,0,0,0,0,0,0,0,0,0,0,0,0,0,0,0,0,0,0,0,0,0,0,0,0,0,0,0,0,0,0,0,0,0,0,0,0,0,0,0,0,0,0,0,0,0],"id":5,"left_children":[1,3,5,7,9,11,13,15,17,19,21,23,25,27,29,31,33,35,37,39,41,43,45,47,49,51,53,55,57,59,61,-1,-1,-1,-1,-1,-1,-1,-1,-1,-1,-1,-1,-1,-1,-1,-1,-1,-1,-1,-1,-1,-1,-1,-1,-1,-1,-1,-1,-1,-1,-1,-1],"loss_changes":[4.489846E3,7.585154E2,6.004531E2,2.7261523E2,6.1530437E1,4.749657E2,3.286316E1,6.3633545E1,2.2240356E1,9.983334E0,1.1088768E1,1.5219635E2,2.8056262E2,1.8404236E1,5.4282837E0,1.981571E2,6.977783E0,2.9245148E0,5.2415916E1,4.4122415E0,2.1257948E1,4.686432E0,8.969116E-2,6.222959E1,2.9526413E1,1.6855005E2,4.7319458E1,4.997162E0,5.3233337E0,9.300232E-1,8.4409485E0,0E0,0E0,0E0,0E0,0E0,0E0,0E0,0E0,0E0,0E0,0E0,0E0,0E0,0E0,0E0,0E0,0E0,0E0,0E0,0E0,0E0,0E0,0E0,0E0,0E0,0E0,0E0,0E0,0E0,0E0,0E0,0E0],"parents":[2147483647,0,0,1,1,2,2,3,3,4,4,5,5,6,6,7,7,8,8,9,9,10,10,11,11,12,12,13,13,14,14,15,15,16,16,17,17,18,18,19,19,20,20,21,21,22,22,23,23,24,24,25,25,26,26,27,27,28,28,29,29,30,30],"right_children":[2,4,6,8,10,12,14,16,18,20,22,24,26,28,30,32,34,36,38,40,42,44,46,48,50,52,54,56,58,60,62,-1,-1,-1,-1,-1,-1,-1,-1,-1,-1,-1,-1,-1,-1,-1,-1,-1,-1,-1,-1,-1,-1,-1,-1,-1,-1,-1,-1,-1,-1,-1,-1],"split_conditions":[3.5039806E-1,3.3257728E0,3.3257728E0,1.0386158E0,1.0386158E0,7.224563E-1,1.0386158E0,1.1535954E0,-5.496531E-1,-5.496531E-1,1.962E1,1.0386158E0,1.0386158E0,8.624531E-1,6.66953E-1,-5.496531E-1,2.3095121E1,1.6690809E0,1.1535954E0,-7.507956E-1,1.1535954E0,1.6690809E0,-1.4581233E0,1.1535954E0,-5.496531E-1,-5.496531E-1,9.453175E-1,6.750329E-1,-7.507956E-1,5.577769E-1,5.030061E-1,-1.3109896E-1,-6.678411E-2,-1.3650443E-1,4.1518476E-2,-6.1113685E-2,-8.190863E-2,-8.76938E-3,-7.4379854E-2,-7.6757364E-2,-5.5509666E-3,4.6565313E-2,-1.654629E-2,9.480446E-2,5.4755416E-2,4.8234977E-2,1.7229854E-1,6.693791E-4,-4.5775227E-2,2.686059E-2,7.2479144E-2,1.9081356E-2,6.7425996E-2,9.454931E-2,1.4374687E-1,1.0449111E-1,1.4603458E-1,6.2846966E-2,2.0182715E-1,1.2194044E-1,2.0120147E-1,9.232059E-2,2.800598E-1],"split_indices":[0,2,2,3,3,0,3,4,4,4,6,3,3,0,4,4,12,16,4,1,4,16,0,4,4,4,0,0,1,0,0,0,0,0,0,0,0,0,0,0,0,0,0,0,0,0,0,0,0,0,0,0,0,0,0,0,0,0,0,0,0,0,0],"split_type":[0,0,0,0,0,0,0,0,0,0,0,0,0,0,0,0,0,0,0,0,0,0,0,0,0,0,0,0,0,0,0,0,0,0,0,0,0,0,0,0,0,0,0,0,0,0,0,0,0,0,0,0,0,0,0,0,0,0,0,0,0,0,0],"sum_hessian":[6.947E3,2.712E3,4.235E3,2.383E3,3.29E2,3.988E3,2.47E2,1.759E3,6.24E2,2.32E2,9.7E1,1.351E3,2.637E3,1.74E2,7.3E1,1.246E3,5.13E2,3.02E2,3.22E2,8.6E1,1.46E2,8.7E1,1E1,9.85E2,3.66E2,1.911E3,7.26E2,1.24E2,5E1,4.8E1,2.5E1,6.83E2,5.63E2,5.12E2,1E0,2.34E2,6.8E1,1.91E2,1.31E2,5E0,8.1E1,9.3E1,5.3E1,4.4E1,4.3E1,1E0,9E0,7.4E2,2.45E2,1.86E2,1.8E2,7.82E2,1.129E3,5.58E2,1.68E2,4.3E1,8.1E1,3E0,4.7E1,7E0,4.1E1,3E0,2.2E1],"tree_param":{"num_deleted":"0","num_feature":"17","num_nodes":"63","size_leaf_vector":"1"}},{"base_weights":[1.3077087E-3,-8.861389E-1,6.1907595E-1,-1.0575039E0,4.0020645E-1,5.317605E-1,2.0077915E0,-1.2340573E0,-5.495429E-1,1.464967E-1,1.0060924E0,2.9617772E-1,9.3659455E-1,1.8327485E0,2.7976923E0,-1.3007392E0,-3.1796002E-1,-5.8954763E-1,1.9376457E-1,6.5396465E-2,6.311747E-1,8.8156044E-1,1.5377651E-1,9.604502E-2,8.0333143E-1,7.599809E-1,1.420505E0,1.5972135E0,2.3596358E0,3.2734618E0,2.110673E0,-1.22048005E-1,-9.262601E-2,-5.05511E-2,-8.1461435E-3,-6.1115965E-2,-3.389481E-2,1.0542679E-3,2.9886045E-2,2.6844366E-2,-1.061309E-2,3.2751713E-2,8.0292135E-2,7.977269E-2,2.9615387E-2,1.861381E-2,-2.7522285E-2,4.552199E-2,8.376591E-2,3.224343E-2,7.9982266E-2,9.099255E-2,1.3442792E-1,1.1298716E-1,1.4847252E-1,5.9076138E-2,1.9456048E-1,1.1181536E-1,2.7084398E-1,1.20250516E-1,1.9768833E-1],"categories":[],"categories_nodes":[],"categories_segments":[],"categories_sizes":[],"default_left":[0,0,0,0,0,0,0,0,0,0,0,0,0,0,0,0,0,0,0,0,0,0,0,0,0,0,0,0,0,0,0,0,0,0,0,0,0,0,0,0,0,0,0,0,0,0,0,0,0,0,0,0,0,0,0,0,0,0,0,0,0],"id":6,"left_children":[1,3,5,7,9,11,13,15,17,19,21,23,25,27,29,31,33,35,37,39,41,43,-1,45,47,49,51,53,55,57,59,-1,-1,-1,-1,-1,-1,-1,-1,-1,-1,-1,-1,-1,-1,-1,-1,-1,-1,-1,-1,-1,-1,-1,-1,-1,-1,-1,-1,-1,-1],"loss_changes":[3.8096943E3,6.29103E2,4.9571924E2,2.2505176E2,5.1502266E1,3.6747668E2,2.8333008E1,1.1363623E2,1.9472229E1,9.313909E0,9.599922E0,2.4747656E2,1.2011023E2,2.1175293E1,6.8190613E0,5.414966E1,8.620512E0,1.755307E1,1.0991042E0,1.101356E1,2.3977566E0,4.8919373E0,0E0,1.053009E2,3.8810425E1,8.869916E1,2.5894897E1,4.170044E0,5.243622E0,1.0383606E-1,6.651459E-1,0E0,0E0,0E0,0E0,0E0,0E0,0E0,0E0,0E0,0E0,0E0,0E0,0E0,0E0,0E0,0E0,0E0,0E0,0E0,0E0,0E0,0E0,0E0,0E0,0E0,0E0,0E0,0E0,0E0,0E0],"parents":[2147483647,0,0,1,1,2,2,3,3,4,4,5,5,6,6,7,7,8,8,9,9,10,10,11,11,12,12,13,13,14,14,15,15,16,16,17,17,18,18,19,19,20,20,21,21,23,23,24,24,25,25,26,26,27,27,28,28,29,29,30,30],"right_children":[2,4,6,8,10,12,14,16,18,20,22,24,26,28,30,32,34,36,38,40,42,44,-1,46,48,50,52,54,56,58,60,-1,-1,-1,-1,-1,-1,-1,-1,-1,-1,-1,-1,-1,-1,-1,-1,-1,-1,-1,-1,-1,-1,-1,-1,-1,-1,-1,-1,-1,-1],"split_conditions":[4.685141E-1,3.3257728E0,3.3257728E0,1.0386158E0,1.0386158E0,8.60435E-1,1.565739E0,2.6582313E-1,-1.0286707E0,-1.6138358E-1,1.962E1,1.0386158E0,1.0386158E0,8.6517584E-1,1.6690809E0,-5.496531E-1,-5.496531E-1,-5.496531E-1,-5.496531E-1,1.6690809E0,1.8031058E-1,1.275256E0,1.5377651E-1,1.1535954E0,-5.496531E-1,-5.496531E-1,-5.496531E-1,3.019712E-1,-7.507956E-1,-1.1579561E0,7.9229397E-1,-1.22048005E-1,-9.262601E-2,-5.05511E-2,-8.1461435E-3,-6.1115965E-2,-3.389481E-2,1.0542679E-3,2.9886045E-2,2.6844366E-2,-1.061309E-2,3.2751713E-2,8.0292135E-2,7.977269E-2,2.9615387E-2,1.861381E-2,-2.7522285E-2,4.552199E-2,8.376591E-2,3.224343E-2,7.9982266E-2,9.099255E-2,1.3442792E-1,1.1298716E-1,1.4847252E-1,5.9076138E-2,1.9456048E-1,1.1181536E-1,2.7084398E-1,1.20250516E-1,1.9768833E-1],"split_indices":[0,2,2,3,3,0,3,0,0,1,6,3,3,0,16,4,4,4,4,16,4,4,0,4,4,4,4,4,1,4,0,0,0,0,0,0,0,0,0,0,0,0,0,0,0,0,0,0,0,0,0,0,0,0,0,0,0,0,0,0,0],"split_type":[0,0,0,0,0,0,0,0,0,0,0,0,0,0,0,0,0,0,0,0,0,0,0,0,0,0,0,0,0,0,0,0,0,0,0,0,0,0,0,0,0,0,0,0,0,0,0,0,0,0,0,0,0,0,0,0,0,0,0,0,0],"sum_hessian":[6.947E3,2.851E3,4.096E3,2.516E3,3.35E2,3.855E3,2.41E2,1.866E3,6.5E2,2.37E2,9.8E1,2.438E3,1.417E3,2E2,4.1E1,1.739E3,1.27E2,6.17E2,3.3E1,2.04E2,3.3E1,8.8E1,1E1,1.749E3,6.89E2,1.04E3,3.77E2,1.41E2,5.9E1,2.2E1,1.9E1,6.72E2,1.067E3,5.1E1,7.6E1,2.99E2,3.18E2,1.7E1,1.6E1,8.6E1,1.18E2,2.2E1,1.1E1,7.1E1,1.7E1,1.335E3,4.14E2,3.53E2,3.36E2,4.19E2,6.21E2,1.83E2,1.94E2,8.6E1,5.5E1,3E0,5.6E1,2E0,2E1,9E0,1E1],"tree_param":{"num_deleted":"0","num_feature":"17","num_nodes":"61","size_leaf_vector":"1"}},{"base_weights":[1.4518722E-3,-8.152285E-1,5.699583E-1,-9.730377E-1,3.693578E-1,4.8933843E-1,1.8521916E0,-1.1354792E0,-5.0567794E-1,1.3532004E-1,9.282631E-1,2.3178637E-1,8.083769E-1,1.6886913E0,2.5905578E0,-1.1968035E0,-2.9298177E-1,-5.4253757E-1,1.791733E-1,6.0243797E-2,5.8400565E-1,7.186921E-1,1.4093416E0,5.0123047E-2,6.975372E-1,6.423809E-1,1.2504891E0,1.5811833E0,2.7592952E0,1.8684047E0,2.963098E0,-8.6182095E-2,-1.18637E-1,-5.0141037E-2,-9.340324E-3,-3.6751494E-2,-6.833197E-2,2.0744547E-4,2.6879154E-2,2.4721488E-2,-9.771188E-3,3.0245505E-2,7.440406E-2,8.0349036E-2,3.0261997E-2,6.8638355E-2,1.4429596E-1,-1.9841244E-2,2.0376917E-2,3.4883056E-2,7.1744844E-2,4.3317527E-2,1.1480798E-1,9.500164E-2,1.8570499E-1,1.0215447E-1,1.3976799E-1,5.650837E-2,2.2747655E-1,4.349556E-2,1.5337746E-1,5.194828E-2,2.423739E-1],"categories":[],"categories_nodes":[],"categories_segments":[],"categories_sizes":[],"default_left":[0,0,0,0,0,0,0,0,0,0,0,0,0,0,0,0,0,0,0,0,0,0,0,0,0,0,0,0,0,0,0,0,0,0,0,0,0,0,0,0,0,0,0,0,0,0,0,0,0,0,0,0,0,0,0,0,0,0,0,0,0,0,0],"id":7,"left_children":[1,3,5,7,9,11,13,15,17,19,21,23,25,27,29,31,33,35,37,39,41,43,45,47,49,51,53,55,57,59,61,-1,-1,-1,-1,-1,-1,-1,-1,-1,-1,-1,-1,-1,-1,-1,-1,-1,-1,-1,-1,-1,-1,-1,-1,-1,-1,-1,-1,-1,-1,-1,-1],"loss_changes":[3.2263381E3,5.3350854E2,4.2261523E2,1.905127E2,4.3824852E1,3.1665637E2,2.4840332E1,9.610913E1,1.653064E1,7.981998E0,8.9683075E0,1.8060709E2,1.2557239E2,1.877179E1,5.7630615E0,5.7916992E1,7.4559736E0,1.5619156E1,9.406103E-1,9.339097E0,2.071334E0,6.5246315E0,4.758053E0,9.381358E1,3.0822693E1,9.9536316E1,2.886731E1,7.1079407E0,9.287567E-1,5.6900024E-2,2.0376892E0,0E0,0E0,0E0,0E0,0E0,0E0,0E0,0E0,0E0,0E0,0E0,0E0,0E0,0E0,0E0,0E0,0E0,0E0,0E0,0E0,0E0,0E0,0E0,0E0,0E0,0E0,0E0,0E0,0E0,0E0,0E0,0E0],"parents":[2147483647,0,0,1,1,2,2,3,3,4,4,5,5,6,6,7,7,8,8,9,9,10,10,11,11,12,12,13,13,14,14,15,15,16,16,17,17,18,18,19,19,20,20,21,21,22,22,23,23,24,24,25,25,26,26,27,27,28,28,29,29,30,30],"right_children":[2,4,6,8,10,12,14,16,18,20,22,24,26,28,30,32,34,36,38,40,42,44,46,48,50,52,54,56,58,60,62,-1,-1,-1,-1,-1,-1,-1,-1,-1,-1,-1,-1,-1,-1,-1,-1,-1,-1,-1,-1,-1,-1,-1,-1,-1,-1,-1,-1,-1,-1,-1,-1],"split_conditions":[4.685141E-1,3.3257728E0,3.3257728E0,1.0386158E0,1.0386158E0,8.268649E-1,1.565739E0,2.6582313E-1,-1.0286707E0,-1.6138358E-1,-1.6187102E-1,1.0386158E0,1.0386158E0,1.0197818E0,-4.2799246E-1,1.1535954E0,-6.713137E-1,1.1535954E0,-6.713137E-1,1.6690809E0,1.8031058E-1,1.6690809E0,1.8031058E-1,-5.496531E-1,6.750329E-1,1.0629833E0,1.1043447E0,7.190439E-1,-1.2796167E0,5.1050574E-1,-3.6300263E-1,-8.6182095E-2,-1.18637E-1,-5.0141037E-2,-9.340324E-3,-3.6751494E-2,-6.833197E-2,2.0744547E-4,2.6879154E-2,2.4721488E-2,-9.771188E-3,3.0245505E-2,7.440406E-2,8.0349036E-2,3.0261997E-2,6.8638355E-2,1.4429596E-1,-1.9841244E-2,2.0376917E-2,3.4883056E-2,7.1744844E-2,4.3317527E-2,1.1480798E-1,9.500164E-2,1.8570499E-1,1.0215447E-1,1.3976799E-1,5.650837E-2,2.2747655E-1,4.349556E-2,1.5337746E-1,5.194828E-2,2.423739E-1],"split_indices":[0,2,2,3,3,0,3,0,0,1,1,3,3,0,4,4,4,4,4,16,4,16,4,4,0,0,0,0,4,0,1,0,0,0,0,0,0,0,0,0,0,0,0,0,0,0,0,0,0,0,0,0,0,0,0,0,0,0,0,0,0,0,0],"split_type":[0,0,0,0,0,0,0,0,0,0,0,0,0,0,0,0,0,0,0,0,0,0,0,0,0,0,0,0,0,0,0,0,0,0,0,0,0,0,0,0,0,0,0,0,0,0,0,0,0,0,0,0,0,0,0,0,0,0,0,0,0,0,0],"sum_hessian":[6.947E3,2.851E3,4.096E3,2.516E3,3.35E2,3.855E3,2.41E2,1.866E3,6.5E2,2.37E2,9.8E1,2.134E3,1.721E3,2E2,4.1E1,1.739E3,1.27E2,6.17E2,3.3E1,2.04E2,3.3E1,7E1,2.8E1,1.536E3,5.98E2,1.253E3,4.68E2,1.84E2,1.6E1,1.6E1,2.5E1,1.23E3,5.09E2,4.3E1,8.4E1,4.89E2,1.28E2,1.6E1,1.7E1,8.6E1,1.18E2,2.2E1,1.1E1,3.7E1,3.3E1,1.3E1,1.5E1,6.25E2,9.11E2,2.6E2,3.38E2,1.113E3,1.4E2,4.44E2,2.4E1,6.8E1,1.16E2,1E0,1.5E1,1E0,1.5E1,1E0,2.4E1],"tree_param":{"num_deleted":"0","num_feature":"17","num_nodes":"63","size_leaf_vector":"1"}},{"base_weights":[1.5752427E-3,-7.8857416E-1,4.9942645E-1,-9.4180995E-1,3.236292E-1,4.253614E-1,1.6766071E0,-1.1011769E0,-4.9447843E-1,9.635418E-2,8.5140824E-1,1.5579712E-2,6.2697E-1,1.4572235E0,2.1846216E0,-1.3176794E0,-9.637167E-1,-6.6756445E-1,-3.3114502E-1,-1.6834486E-1,2.5085807E-1,6.5176916E-1,1.3039367E0,-1.3954662E-1,4.4433632E-1,4.6959105E-1,1.0370038E0,1.3581187E0,2.4502292E0,1.9632864E0,2.249006E-1,-1.07525826E-1,-3.473786E-2,-4.770301E-2,-1.0916465E-1,-4.896778E-2,-6.7889564E-2,-2.5022938E-3,-6.144928E-2,-7.028125E-2,-9.038219E-3,4.14647E-2,-1.6755536E-2,7.409027E-2,2.5287187E-2,6.3539475E-2,1.3347377E-1,-3.385096E-2,4.4653774E-3,1.6528793E-2,5.535349E-2,1.3174939E-2,5.441836E-2,6.48152E-2,1.00882985E-1,9.154512E-2,1.3558826E-1,5.4248046E-2,2.0226993E-1,1.0422596E-1,1.7823389E-1],"categories":[],"categories_nodes":[],"categories_segments":[],"categories_sizes":[],"default_left":[0,0,0,0,0,0,0,0,0,0,0,0,0,0,0,0,0,0,0,0,0,0,0,0,0,0,0,0,0,0,0,0,0,0,0,0,0,0,0,0,0,0,0,0,0,0,0,0,0,0,0,0,0,0,0,0,0,0,0,0,0],"id":8,"left_children":[1,3,5,7,9,11,13,15,17,19,21,23,25,27,29,31,33,35,37,39,41,43,45,47,49,51,53,55,57,59,-1,-1,-1,-1,-1,-1,-1,-1,-1,-1,-1,-1,-1,-1,-1,-1,-1,-1,-1,-1,-1,-1,-1,-1,-1,-1,-1,-1,-1,-1,-1],"loss_changes":[2.733576E3,4.5807812E2,3.70969E2,1.6777051E2,3.902199E1,3.3144373E2,2.4901917E1,5.0513428E1,1.7363327E1,9.407651E0,8.003685E0,8.8123146E1,1.7303601E2,1.4287994E1,4.7442627E0,1.5109009E1,1.5648212E2,2.5034027E0,4.2168564E1,3.2429564E0,1.795924E1,6.1540318E0,4.0623627E0,5.393103E1,2.0574654E1,1.2480475E2,3.6834717E1,9.939819E0,3.627472E-1,7.2348022E0,0E0,0E0,0E0,0E0,0E0,0E0,0E0,0E0,0E0,0E0,0E0,0E0,0E0,0E0,0E0,0E0,0E0,0E0,0E0,0E0,0E0,0E0,0E0,0E0,0E0,0E0,0E0,0E0,0E0,0E0,0E0],"parents":[2147483647,0,0,1,1,2,2,3,3,4,4,5,5,6,6,7,7,8,8,9,9,10,10,11,11,12,12,13,13,14,14,15,15,16,16,17,17,18,18,19,19,20,20,21,21,22,22,23,23,24,24,25,25,26,26,27,27,28,28,29,29],"right_children":[2,4,6,8,10,12,14,16,18,20,22,24,26,28,30,32,34,36,38,40,42,44,46,48,50,52,54,56,58,60,-1,-1,-1,-1,-1,-1,-1,-1,-1,-1,-1,-1,-1,-1,-1,-1,-1,-1,-1,-1,-1,-1,-1,-1,-1,-1,-1,-1,-1,-1,-1],"split_conditions":[2.6582313E-1,3.3257728E0,3.3257728E0,1.0386158E0,1.0386158E0,7.1487767E-1,1.0386158E0,-5.496531E-1,-5.496531E-1,-5.496531E-1,-1.6187102E-1,1.0386158E0,1.0386158E0,1.0197818E0,-1.638038E-1,2.2829255E-1,1.1535954E0,1.6690809E0,1.1535954E0,-7.507956E-1,1.1535954E0,1.6690809E0,1.8031058E-1,-5.496531E-1,-5.496531E-1,-5.496531E-1,-5.496531E-1,3.019712E-1,-1.2796167E0,7.276328E-1,2.249006E-1,-1.07525826E-1,-3.473786E-2,-4.770301E-2,-1.0916465E-1,-4.896778E-2,-6.7889564E-2,-2.5022938E-3,-6.144928E-2,-7.028125E-2,-9.038219E-3,4.14647E-2,-1.6755536E-2,7.409027E-2,2.5287187E-2,6.3539475E-2,1.3347377E-1,-3.385096E-2,4.4653774E-3,1.6528793E-2,5.535349E-2,1.3174939E-2,5.441836E-2,6.48152E-2,1.00882985E-1,9.154512E-2,1.3558826E-1,5.4248046E-2,2.0226993E-1,1.0422596E-1,1.7823389E-1],"split_indices":[0,2,2,3,3,0,3,4,4,4,1,3,3,0,1,1,4,16,4,1,4,16,4,4,4,4,4,4,4,0,0,0,0,0,0,0,0,0,0,0,0,0,0,0,0,0,0,0,0,0,0,0,0,0,0,0,0,0,0,0,0],"split_type":[0,0,0,0,0,0,0,0,0,0,0,0,0,0,0,0,0,0,0,0,0,0,0,0,0,0,0,0,0,0,0,0,0,0,0,0,0,0,0,0,0,0,0,0,0,0,0,0,0,0,0,0,0,0,0,0,0,0,0,0,0],"sum_hessian":[6.947E3,2.685E3,4.262E3,2.36E3,3.25E2,4.011E3,2.51E2,1.739E3,6.21E2,2.28E2,9.7E1,1.323E3,2.688E3,1.78E2,7.3E1,6.72E2,1.067E3,3E2,3.21E2,8.4E1,1.44E2,6.9E1,2.8E1,9.72E2,3.51E2,1.944E3,7.44E2,1.64E2,1.4E1,5.7E1,1.6E1,6.52E2,2E1,5.58E2,5.09E2,2.33E2,6.7E1,1.91E2,1.3E2,5E0,7.9E1,9.1E1,5.3E1,3.7E1,3.2E1,1.3E1,1.5E1,3.96E2,5.76E2,1.8E2,1.71E2,7.95E2,1.149E3,3.72E2,3.72E2,1.03E2,6.1E1,1E0,1.3E1,1.8E1,3.9E1],"tree_param":{"num_deleted":"0","num_feature":"17","num_nodes":"61","size_leaf_vector":"1"}},{"base_weights":[1.5972377E-3,-6.8553257E-1,4.8765254E-1,-8.1754106E-1,3.1263682E-1,4.1856506E-1,1.5835752E0,-9.5604193E-1,-4.2094538E-1,1.1285244E-1,7.917866E-1,5.49916E-1,-8.2777426E-2,1.4407973E0,2.225766E0,-1.0132546E0,-2.6289576E-1,-4.600651E-1,1.5107638E-1,-9.918782E-2,2.3932426E-1,6.861206E-1,1.5747399E0,1.8234782E-1,9.970937E-1,-2.0050919E-1,4.850017E-1,1.2506261E0,1.8959529E0,2.6431913E0,1.6344388E0,-9.699812E-2,-7.094131E-2,-4.0357716E-2,-8.417985E-3,-4.907026E-2,-2.5155297E-2,1.8672075E-2,-1.4868875E-2,-1.44994445E-2,4.0527567E-2,3.778771E-2,-1.2820384E-2,6.394835E-2,1.5605425E-2,3.3976972E-2,1.3178171E-1,-3.6682692E-4,4.649365E-2,6.6601E-2,1.1061651E-1,-2.5956642E-2,1.6987516E-2,2.6673356E-2,1.009777E-1,1.629535E-2,1.0232668E-1,4.165279E-2,1.5701729E-1,2.4611361E-1,1.591757E-1,9.310426E-2,1.5909551E-1],"categories":[],"categories_nodes":[],"categories_segments":[],"categories_sizes":[],"default_left":[0,0,0,0,0,0,0,0,0,0,0,0,0,0,0,0,0,0,0,0,0,0,0,0,0,0,0,0,0,0,0,0,0,0,0,0,0,0,0,0,0,0,0,0,0,0,0,0,0,0,0,0,0,0,0,0,0,0,0,0,0,0,0],"id":9,"left_children":[1,3,5,7,9,11,13,15,17,19,21,23,25,27,29,31,33,35,37,39,41,43,45,47,49,51,53,55,57,59,61,-1,-1,-1,-1,-1,-1,-1,-1,-1,-1,-1,-1,-1,-1,-1,-1,-1,-1,-1,-1,-1,-1,-1,-1,-1,-1,-1,-1,-1,-1,-1,-1],"loss_changes":[2.3208486E3,3.796123E2,3.0749542E2,1.3928162E2,3.2170525E1,2.5225787E2,1.8890625E1,7.444714E1,1.4838539E1,6.433028E0,7.1099586E0,4.9867596E2,5.3306377E1,1.4940399E1,6.046921E0,4.2771484E1,5.4698896E0,1.3604645E1,1.2361237E0,4.5655026E0,1.404231E1,4.7928047E0,2.1793175E-1,1.2428284E2,8.573193E1,3.3842857E1,1.5719757E1,4.0296783E0,4.2117767E0,3.9045715E-1,1.0200539E0,0E0,0E0,0E0,0E0,0E0,0E0,0E0,0E0,0E0,0E0,0E0,0E0,0E0,0E0,0E0,0E0,0E0,0E0,0E0,0E0,0E0,0E0,0E0,0E0,0E0,0E0,0E0,0E0,0E0,0E0,0E0,0E0],"parents":[2147483647,0,0,1,1,2,2,3,3,4,4,5,5,6,6,7,7,8,8,9,9,10,10,11,11,12,12,13,13,14,14,15,15,16,16,17,17,18,18,19,19,20,20,21,21,22,22,23,23,24,24,25,25,26,26,27,27,28,28,29,29,30,30],"right_children":[2,4,6,8,10,12,14,16,18,20,22,24,26,28,30,32,34,36,38,40,42,44,46,48,50,52,54,56,58,60,62,-1,-1,-1,-1,-1,-1,-1,-1,-1,-1,-1,-1,-1,-1,-1,-1,-1,-1,-1,-1,-1,-1,-1,-1,-1,-1,-1,-1,-1,-1,-1,-1],"split_conditions":[4.7661805E-1,3.3257728E0,3.3257728E0,1.0386158E0,1.0386158E0,1.1535954E0,1.565739E0,2.6582313E-1,-1.0286707E0,-5.496531E-1,1.962E1,-5.496531E-1,9.453175E-1,8.7129205E-1,1.6690809E0,-5.496531E-1,-5.496531E-1,-5.496531E-1,1.1535954E0,-1.638038E-1,1.1535954E0,1.275256E0,-1.4581233E0,1.0386158E0,8.928306E-1,1.0386158E0,1.0386158E0,-7.507956E-1,-7.507956E-1,6.217932E-1,8.60435E-1,-9.699812E-2,-7.094131E-2,-4.0357716E-2,-8.417985E-3,-4.907026E-2,-2.5155297E-2,1.8672075E-2,-1.4868875E-2,-1.44994445E-2,4.0527567E-2,3.778771E-2,-1.2820384E-2,6.394835E-2,1.5605425E-2,3.3976972E-2,1.3178171E-1,-3.6682692E-4,4.649365E-2,6.6601E-2,1.1061651E-1,-2.5956642E-2,1.6987516E-2,2.6673356E-2,1.009777E-1,1.629535E-2,1.0232668E-1,4.165279E-2,1.5701729E-1,2.4611361E-1,1.591757E-1,9.310426E-2,1.5909551E-1],"split_indices":[0,2,2,3,3,4,3,0,0,4,6,4,0,0,16,4,4,4,4,1,4,4,0,3,0,3,3,1,1,11,0,0,0,0,0,0,0,0,0,0,0,0,0,0,0,0,0,0,0,0,0,0,0,0,0,0,0,0,0,0,0,0,0],"split_type":[0,0,0,0,0,0,0,0,0,0,0,0,0,0,0,0,0,0,0,0,0,0,0,0,0,0,0,0,0,0,0,0,0,0,0,0,0,0,0,0,0,0,0,0,0,0,0,0,0,0,0,0,0,0,0,0,0,0,0,0,0,0,0],"sum_hessian":[6.947E3,2.878E3,4.069E3,2.542E3,3.36E2,3.829E3,2.4E2,1.883E3,6.59E2,2.38E2,9.8E1,3.034E3,7.95E2,1.99E2,4.1E1,1.739E3,1.44E2,6.17E2,4.2E1,8.9E1,1.49E2,8.8E1,1E1,1.666E3,1.368E3,6.59E2,1.36E2,1.43E2,5.6E1,2.2E1,1.9E1,6.72E2,1.067E3,5.6E1,8.8E1,2.99E2,3.18E2,3.4E1,8E0,7.9E1,1E1,9.4E1,5.5E1,7.1E1,1.7E1,1E0,9E0,1.135E3,5.31E2,9.61E2,4.07E2,5.07E2,1.52E2,1.15E2,2.1E1,4E0,1.39E2,3E0,5.3E1,1.1E1,1.1E1,1E1,9E0],"tree_param":{"num_deleted":"0","num_feature":"17","num_nodes":"63","size_leaf_vector":"1"}},{"base_weights":[1.6603281E-3,-5.8005965E-1,4.916186E-1,-6.990584E-1,3.4723496E-1,4.303551E-1,1.498205E0,-8.3730096E-1,-3.101006E-1,1.4979616E-1,7.9818755E-1,3.1838432E-1,9.141354E-1,1.3004744E0,1.9683666E0,-9.3532795E-1,-3.5916615E-1,-4.2338008E-1,2.6158097E-1,7.975472E-2,7.853839E-1,6.871377E-1,1.6478328E0,1.7795919E-1,6.787625E-1,7.844939E-1,1.6176591E0,1.0681702E0,1.6227573E0,1.6772978E0,2.4567723E0,-6.654157E-2,-9.46761E-2,-1.8825926E-2,-5.092032E-2,-2.7966598E-2,-5.6033153E-2,3.042834E-2,-2.4078822E-2,2.3903234E-2,-5.561272E-3,7.62588E-2,3.0485349E-2,6.261093E-2,2.3612713E-2,5.026644E-2,1.43112E-1,-6.965523E-3,2.9087469E-2,3.7397802E-2,7.061968E-2,7.165669E-2,2.837314E-2,1.402019E-1,7.762754E-2,7.957649E-2,1.5740901E-1,1.7895828E-1,8.2645535E-2,1.3585305E-1,3.287281E-2,2.0352997E-1,2.8389053E-2],"categories":[],"categories_nodes":[],"categories_segments":[],"categories_sizes":[],"default_left":[0,0,0,0,0,0,0,0,0,0,0,0,0,0,0,0,0,0,0,0,0,0,0,0,0,0,0,0,0,0,0,0,0,0,0,0,0,0,0,0,0,0,0,0,0,0,0,0,0,0,0,0,0,0,0,0,0,0,0,0,0,0,0],"id":10,"left_children":[1,3,5,7,9,11,13,15,17,19,21,23,25,27,29,31,33,35,37,39,41,43,45,47,49,51,53,55,57,59,61,-1,-1,-1,-1,-1,-1,-1,-1,-1,-1,-1,-1,-1,-1,-1,-1,-1,-1,-1,-1,-1,-1,-1,-1,-1,-1,-1,-1,-1,-1,-1,-1],"loss_changes":[1.9805938E3,3.5081494E2,2.3196313E2,1.5115808E2,3.21113E1,1.9238904E2,1.7520721E1,9.7013306E1,4.8033005E1,1.1200285E1,9.246536E0,1.4613098E2,5.9656494E1,9.871094E0,4.693161E0,4.3288574E1,1.2043079E1,1.2389824E1,8.333076E0,7.508062E0,1.3333807E0,3.4749184E0,6.018028E-1,1.0241332E2,3.4498077E1,2.6739044E1,7.2913513E0,4.1879196E0,2.0507599E1,4.1200256E-1,2.9529266E0,0E0,0E0,0E0,0E0,0E0,0E0,0E0,0E0,0E0,0E0,0E0,0E0,0E0,0E0,0E0,0E0,0E0,0E0,0E0,0E0,0E0,0E0,0E0,0E0,0E0,0E0,0E0,0E0,0E0,0E0,0E0,0E0],"parents":[2147483647,0,0,1,1,2,2,3,3,4,4,5,5,6,6,7,7,8,8,9,9,10,10,11,11,12,12,13,13,14,14,15,15,16,16,17,17,18,18,19,19,20,20,21,21,22,22,23,23,24,24,25,25,26,26,27,27,28,28,29,29,30,30],"right_children":[2,4,6,8,10,12,14,16,18,20,22,24,26,28,30,32,34,36,38,40,42,44,46,48,50,52,54,56,58,60,62,-1,-1,-1,-1,-1,-1,-1,-1,-1,-1,-1,-1,-1,-1,-1,-1,-1,-1,-1,-1,-1,-1,-1,-1,-1,-1,-1,-1,-1,-1,-1,-1],"split_conditions":[5.577769E-1,3.3257728E0,3.3257728E0,1.0386158E0,1.0386158E0,9.453175E-1,1.0386158E0,-1.0286707E0,-1.0286707E0,2.6582313E-1,1.962E1,1.0386158E0,1.1043447E0,3.019712E-1,6.66953E-1,1.1535954E0,1.1535954E0,1.1535954E0,1.1535954E0,1.6690809E0,-1.5630834E-2,1.275256E0,-1.3839548E0,-5.496531E-1,-5.496531E-1,1.1535954E0,1.1535954E0,1.0533569E0,1.1535954E0,4.2363182E-1,1.3969167E0,-6.654157E-2,-9.46761E-2,-1.8825926E-2,-5.092032E-2,-2.7966598E-2,-5.6033153E-2,3.042834E-2,-2.4078822E-2,2.3903234E-2,-5.561272E-3,7.62588E-2,3.0485349E-2,6.261093E-2,2.3612713E-2,5.026644E-2,1.43112E-1,-6.965523E-3,2.9087469E-2,3.7397802E-2,7.061968E-2,7.165669E-2,2.837314E-2,1.402019E-1,7.762754E-2,7.957649E-2,1.5740901E-1,1.7895828E-1,8.2645535E-2,1.3585305E-1,3.287281E-2,2.0352997E-1,2.8389053E-2],"split_indices":[0,2,2,3,3,0,3,0,0,0,6,3,0,4,4,4,4,4,4,16,3,4,0,4,4,4,4,0,4,4,4,0,0,0,0,0,0,0,0,0,0,0,0,0,0,0,0,0,0,0,0,0,0,0,0,0,0,0,0,0,0,0,0],"split_type":[0,0,0,0,0,0,0,0,0,0,0,0,0,0,0,0,0,0,0,0,0,0,0,0,0,0,0,0,0,0,0,0,0,0,0,0,0,0,0,0,0,0,0,0,0,0,0,0,0,0,0,0,0,0,0,0,0,0,0,0,0,0,0],"sum_hessian":[6.947E3,3.176E3,3.771E3,2.815E3,3.61E2,3.556E3,2.15E2,2.076E3,7.39E2,2.52E2,1.09E2,2.889E3,6.67E2,1.54E2,6.1E1,1.722E3,3.54E2,6.17E2,1.22E2,2.28E2,2.4E1,9.8E1,1.1E1,2.08E3,8.09E2,5.65E2,1.02E2,9.2E1,6.2E1,4.1E1,2E1,1.218E3,5.04E2,2.46E2,1.08E2,4.89E2,1.28E2,1.01E2,2.1E1,9.2E1,1.36E2,1.6E1,8E0,7.8E1,2E1,2E0,9E0,8.57E2,1.223E3,3.99E2,4.1E2,4.48E2,1.17E2,8.3E1,1.9E1,8.7E1,5E0,2.9E1,3.3E1,4E1,1E0,1.9E1,1E0],"tree_param":{"num_deleted":"0","num_feature":"17","num_nodes":"63","size_leaf_vector":"1"}},{"base_weights":[1.7353442E-3,-5.336246E-1,4.5264646E-1,-6.432433E-1,3.2057413E-1,3.9605284E-1,1.3825117E0,-7.70428E-1,-2.853975E-1,1.3830687E-1,7.368746E-1,5.0991607E-1,-5.4877058E-2,1.1996533E0,1.8173593E0,-8.580119E-1,-3.1727284E-1,-3.8964567E-1,2.407063E-1,7.3454425E-2,7.268231E-1,6.3303787E-1,1.532121E0,1.8843663E-1,8.965927E-1,-1.6471557E-1,4.1213676E-1,1.1056137E0,2.0036478E0,1.5471315E0,2.271274E0,-8.397974E-2,-5.8910947E-2,-4.381717E-2,-1.3503335E-2,-4.2927854E-2,-2.0017946E-2,2.801796E-2,-2.2240102E-2,-2.0011015E-2,1.3978804E-2,7.0516974E-2,2.8317515E-2,5.7665486E-2,2.181364E-2,4.7585577E-2,1.3280794E-1,2.4454407E-3,4.2279832E-2,6.5135136E-2,1.1750974E-1,-2.1855112E-2,1.4376132E-2,2.1798104E-2,9.038358E-2,6.466429E-2,1.04290724E-1,3.9501075E-2,1.6609822E-1,4.605751E-2,1.2650473E-1,1.8806167E-1,2.7253494E-2],"categories":[],"categories_nodes":[],"categories_segments":[],"categories_sizes":[],"default_left":[0,0,0,0,0,0,0,0,0,0,0,0,0,0,0,0,0,0,0,0,0,0,0,0,0,0,0,0,0,0,0,0,0,0,0,0,0,0,0,0,0,0,0,0,0,0,0,0,0,0,0,0,0,0,0,0,0,0,0,0,0,0,0],"id":11,"left_children":[1,3,5,7,9,11,13,15,17,19,21,23,25,27,29,31,33,35,37,39,41,43,45,47,49,51,53,55,57,59,61,-1,-1,-1,-1,-1,-1,-1,-1,-1,-1,-1,-1,-1,-1,-1,-1,-1,-1,-1,-1,-1,-1,-1,-1,-1,-1,-1,-1,-1,-1,-1,-1],"loss_changes":[1.6774869E3,2.9768823E2,1.9795197E2,1.2794348E2,2.7365902E1,1.8265979E2,1.4995178E1,8.216199E1,4.0679356E1,9.602793E0,8.113438E0,3.5286743E2,3.689849E1,9.50386E0,4.090988E0,3.9803467E1,1.1472645E1,1.2527519E1,7.08474E0,7.5488653E0,1.1294355E0,2.9351501E0,4.5199394E-1,8.330299E1,5.9590454E1,2.1792667E1,1.3423454E1,7.247406E0,6.1865234E-1,4.8403168E-1,2.4221802E0,0E0,0E0,0E0,0E0,0E0,0E0,0E0,0E0,0E0,0E0,0E0,0E0,0E0,0E0,0E0,0E0,0E0,0E0,0E0,0E0,0E0,0E0,0E0,0E0,0E0,0E0,0E0,0E0,0E0,0E0,0E0,0E0],"parents":[2147483647,0,0,1,1,2,2,3,3,4,4,5,5,6,6,7,7,8,8,9,9,10,10,11,11,12,12,13,13,14,14,15,15,16,16,17,17,18,18,19,19,20,20,21,21,22,22,23,23,24,24,25,25,26,26,27,27,28,28,29,29,30,30],"right_children":[2,4,6,8,10,12,14,16,18,20,22,24,26,28,30,32,34,36,38,40,42,44,46,48,50,52,54,56,58,60,62,-1,-1,-1,-1,-1,-1,-1,-1,-1,-1,-1,-1,-1,-1,-1,-1,-1,-1,-1,-1,-1,-1,-1,-1,-1,-1,-1,-1,-1,-1,-1,-1],"split_conditions":[5.577769E-1,3.3257728E0,3.3257728E0,1.0386158E0,1.0386158E0,1.1535954E0,1.0386158E0,2.6582313E-1,-1.0286707E0,2.6582313E-1,1.962E1,-5.496531E-1,9.453175E-1,1.0197818E0,6.66953E-1,-5.496531E-1,-5.496531E-1,-5.496531E-1,1.1535954E0,-6.713137E-1,-1.5630834E-2,1.275256E0,-1.3839548E0,1.0386158E0,9.8266804E-1,1.0386158E0,1.0386158E0,-5.496531E-1,-1.2796167E0,-5.025103E-1,1.3969167E0,-8.397974E-2,-5.8910947E-2,-4.381717E-2,-1.3503335E-2,-4.2927854E-2,-2.0017946E-2,2.801796E-2,-2.2240102E-2,-2.0011015E-2,1.3978804E-2,7.0516974E-2,2.8317515E-2,5.7665486E-2,2.181364E-2,4.7585577E-2,1.3280794E-1,2.4454407E-3,4.2279832E-2,6.5135136E-2,1.1750974E-1,-2.1855112E-2,1.4376132E-2,2.1798104E-2,9.038358E-2,6.466429E-2,1.04290724E-1,3.9501075E-2,1.6609822E-1,4.605751E-2,1.2650473E-1,1.8806167E-1,2.7253494E-2],"split_indices":[0,2,2,3,3,4,3,0,0,0,6,4,0,0,4,4,4,4,4,4,3,4,0,3,0,3,3,4,4,1,4,0,0,0,0,0,0,0,0,0,0,0,0,0,0,0,0,0,0,0,0,0,0,0,0,0,0,0,0,0,0,0,0],"split_type":[0,0,0,0,0,0,0,0,0,0,0,0,0,0,0,0,0,0,0,0,0,0,0,0,0,0,0,0,0,0,0,0,0,0,0,0,0,0,0,0,0,0,0,0,0,0,0,0,0,0,0,0,0,0,0,0,0,0,0,0,0,0,0],"sum_hessian":[6.947E3,3.176E3,3.771E3,2.815E3,3.61E2,3.556E3,2.15E2,2.076E3,7.39E2,2.52E2,1.09E2,2.839E3,7.17E2,1.54E2,6.1E1,1.739E3,3.37E2,6.17E2,1.22E2,2.28E2,2.4E1,9.8E1,1.1E1,1.551E3,1.288E3,5.81E2,1.36E2,1.4E2,1.4E1,4.1E1,2E1,6.72E2,1.067E3,1.31E2,2.06E2,2.99E2,3.18E2,1.01E2,2.1E1,5.4E1,1.74E2,1.6E1,8E0,7.8E1,2E1,2E0,9E0,1.06E3,4.91E2,1.128E3,1.6E2,4.42E2,1.39E2,1.15E2,2.1E1,5.8E1,8.2E1,1E0,1.3E1,2E0,3.9E1,1.9E1,1E0],"tree_param":{"num_deleted":"0","num_feature":"17","num_nodes":"63","size_leaf_vector":"1"}},{"base_weights":[1.7677466E-3,-4.356214E-1,4.7492847E-1,-5.270169E-1,3.3157054E-1,4.228716E-1,1.3210214E0,-6.7791253E-1,-1.28793E-1,1.6453466E-1,7.1750253E-1,5.279838E-1,7.211786E-3,1.1543901E0,1.7080591E0,-7.9205775E-1,-3.5857585E-1,-8.557627E-3,-5.121447E-1,7.268617E-2,7.2338104E-1,5.2088E-1,1.1576611E0,2.3232259E-1,8.810752E-1,-5.303354E-2,7.1434766E-1,6.72689E-1,1.2934632E0,1.4495522E0,2.1351748E0,-5.542119E-2,-8.241348E-2,-2.30173E-2,-4.9996216E-2,-2.4488075E-2,3.0783957E-2,-4.175054E-2,6.1694983E-2,2.1636201E-2,-4.661677E-3,6.241493E-2,2.8828658E-2,3.7269678E-2,1.0198753E-1,1.8740654E-2,1.0430024E-1,6.716509E-3,4.4027966E-2,6.659149E-2,1.3411072E-1,-1.2805507E-2,2.566154E-2,5.0745968E-2,1.0461525E-1,-2.2758E-2,5.9489448E-2,9.446509E-2,1.6068071E-1,1.0101646E-1,1.4771613E-1,1.7739661E-1,2.6163368E-2],"categories":[],"categories_nodes":[],"categories_segments":[],"categories_sizes":[],"default_left":[0,0,0,0,0,0,0,0,0,0,0,0,0,0,0,0,0,0,0,0,0,0,0,0,0,0,0,0,0,0,0,0,0,0,0,0,0,0,0,0,0,0,0,0,0,0,0,0,0,0,0,0,0,0,0,0,0,0,0,0,0,0,0],"id":12,"left_children":[1,3,5,7,9,11,13,15,17,19,21,23,25,27,29,31,33,35,37,39,41,43,45,47,49,51,53,55,57,59,61,-1,-1,-1,-1,-1,-1,-1,-1,-1,-1,-1,-1,-1,-1,-1,-1,-1,-1,-1,-1,-1,-1,-1,-1,-1,-1,-1,-1,-1,-1,-1,-1],"loss_changes":[1.4381326E3,2.5337048E2,1.4646344E2,1.9382397E2,2.4700775E1,1.3744781E2,1.0475311E1,8.501062E1,4.0925697E1,1.3806303E1,9.4362335E0,2.6193225E2,2.7132523E1,8.374756E0,3.0880432E0,4.0022827E1,1.1485161E1,7.93544E1,3.0515976E0,6.0502067E0,5.0247765E-1,2.807022E0,4.416149E0,6.4502144E1,4.289679E1,2.353727E1,1.5445557E0,2.4519386E0,6.16658E0,4.865265E-1,2.1015854E0,0E0,0E0,0E0,0E0,0E0,0E0,0E0,0E0,0E0,0E0,0E0,0E0,0E0,0E0,0E0,0E0,0E0,0E0,0E0,0E0,0E0,0E0,0E0,0E0,0E0,0E0,0E0,0E0,0E0,0E0,0E0,0E0],"parents":[2147483647,0,0,1,1,2,2,3,3,4,4,5,5,6,6,7,7,8,8,9,9,10,10,11,11,12,12,13,13,14,14,15,15,16,16,17,17,18,18,19,19,20,20,21,21,22,22,23,23,24,24,25,25,26,26,27,27,28,28,29,29,30,30],"right_children":[2,4,6,8,10,12,14,16,18,20,22,24,26,28,30,32,34,36,38,40,42,44,46,48,50,52,54,56,58,60,62,-1,-1,-1,-1,-1,-1,-1,-1,-1,-1,-1,-1,-1,-1,-1,-1,-1,-1,-1,-1,-1,-1,-1,-1,-1,-1,-1,-1,-1,-1,-1,-1],"split_conditions":[6.393014E-1,3.3257728E0,3.3257728E0,-1.0286707E0,1.0386158E0,1.1535954E0,1.0386158E0,1.0386158E0,1.1535954E0,3.5039806E-1,-1.6187102E-1,-5.496531E-1,1.0424765E0,-7.929743E-1,6.66953E-1,1.1535954E0,1.1535954E0,-5.496531E-1,2.3095121E1,1.6690809E0,1.1535954E0,2.3095121E1,-1.3374537E0,1.0386158E0,1.0629833E0,1.0386158E0,1.2381054E0,6.750329E-1,1.012104E0,8.910714E-1,1.3969167E0,-5.542119E-2,-8.241348E-2,-2.30173E-2,-4.9996216E-2,-2.4488075E-2,3.0783957E-2,-4.175054E-2,6.1694983E-2,2.1636201E-2,-4.661677E-3,6.241493E-2,2.8828658E-2,3.7269678E-2,1.0198753E-1,1.8740654E-2,1.0430024E-1,6.716509E-3,4.4027966E-2,6.659149E-2,1.3411072E-1,-1.2805507E-2,2.566154E-2,5.0745968E-2,1.0461525E-1,-2.2758E-2,5.9489448E-2,9.446509E-2,1.6068071E-1,1.0101646E-1,1.4771613E-1,1.7739661E-1,2.6163368E-2],"split_indices":[0,2,2,0,3,4,3,3,4,0,1,4,0,4,4,4,4,4,12,16,4,12,0,3,0,3,0,0,0,0,4,0,0,0,0,0,0,0,0,0,0,0,0,0,0,0,0,0,0,0,0,0,0,0,0,0,0,0,0,0,0,0,0],"split_type":[0,0,0,0,0,0,0,0,0,0,0,0,0,0,0,0,0,0,0,0,0,0,0,0,0,0,0,0,0,0,0,0,0,0,0,0,0,0,0,0,0,0,0,0,0,0,0,0,0,0,0,0,0,0,0,0,0,0,0,0,0,0,0],"sum_hessian":[6.947E3,3.61E3,3.337E3,3.226E3,3.84E2,3.145E3,1.92E2,2.339E3,8.87E2,2.69E2,1.15E2,2.51E3,6.35E2,1.37E2,5.5E1,1.722E3,6.17E2,6.76E2,2.11E2,2.32E2,3.7E1,8.1E1,3.4E1,1.367E3,1.143E3,5.86E2,4.9E1,3.2E1,1.05E2,3.7E1,1.8E1,1.218E3,5.04E2,4.89E2,1.28E2,3.85E2,2.91E2,2.1E2,1E0,9.2E1,1.4E2,3.1E1,6E0,7.7E1,4E0,5E0,2.9E1,9.33E2,4.34E2,1.079E3,6.4E1,4.56E2,1.3E2,4.5E1,4E0,2E0,3E1,9.3E1,1.2E1,2.8E1,9E0,1.7E1,1E0],"tree_param":{"num_deleted":"0","num_feature":"17","num_nodes":"63","size_leaf_vector":"1"}},{"base_weights":[1.8206377E-3,-4.0072012E-1,4.3728283E-1,-4.8491263E-1,3.0600724E-1,3.8917527E-1,1.2191955E0,-6.2376946E-1,-1.1846003E-1,1.5177268E-1,6.623635E-1,4.858452E-1,6.899449E-3,1.1046292E0,1.7224728E0,-7.2877294E-1,-3.3000782E-1,-7.863727E-3,-4.7107908E-1,6.162784E-2,6.3966304E-1,4.8090786E-1,1.0685635E0,2.1377362E-1,8.1076485E-1,-5.1197875E-2,6.3400763E-1,1.0117579E0,1.8263255E0,1.1763871E0,1.6367307E-1,-5.0520837E-2,-7.7448525E-2,-3.766983E-2,-1.5719865E-2,-2.2534102E-2,2.8329672E-2,-3.842633E-2,5.922718E-2,-1.9029375E-2,1.2432215E-2,-1.2034931E-2,5.3008236E-2,3.150818E-2,7.301405E-2,1.7491277E-2,9.623434E-2,8.434428E-3,4.9575586E-2,5.5992093E-2,9.042982E-2,-1.1905221E-2,2.3208475E-2,4.2414248E-2,8.302716E-2,1.30066965E-2,8.431676E-2,3.5541456E-2,1.5079498E-1,3.696823E-2,1.0005844E-1],"categories":[],"categories_nodes":[],"categories_segments":[],"categories_sizes":[],"default_left":[0,0,0,0,0,0,0,0,0,0,0,0,0,0,0,0,0,0,0,0,0,0,0,0,0,0,0,0,0,0,0,0,0,0,0,0,0,0,0,0,0,0,0,0,0,0,0,0,0,0,0,0,0,0,0,0,0,0,0,0,0],"id":13,"left_children":[1,3,5,7,9,11,13,15,17,19,21,23,25,27,29,31,33,35,37,39,41,43,45,47,49,51,53,55,57,59,-1,-1,-1,-1,-1,-1,-1,-1,-1,-1,-1,-1,-1,-1,-1,-1,-1,-1,-1,-1,-1,-1,-1,-1,-1,-1,-1,-1,-1,-1,-1],"loss_changes":[1.218099E3,2.1500714E2,1.2508746E2,1.6413025E2,2.1060017E1,1.1625577E2,9.225433E0,7.193915E1,3.462684E1,1.1835394E1,8.036167E0,2.2180261E2,2.3204042E1,8.87619E0,3.5985107E0,3.949695E1,1.1530098E1,6.720124E1,2.7312164E0,6.4684544E0,8.6092377E-1,2.7227383E0,3.734005E0,6.0097713E1,3.974408E1,1.9467093E1,1.7139645E0,4.9891205E0,5.396652E-1,2.1857071E-1,0E0,0E0,0E0,0E0,0E0,0E0,0E0,0E0,0E0,0E0,0E0,0E0,0E0,0E0,0E0,0E0,0E0,0E0,0E0,0E0,0E0,0E0,0E0,0E0,0E0,0E0,0E0,0E0,0E0,0E0,0E0],"parents":[2147483647,0,0,1,1,2,2,3,3,4,4,5,5,6,6,7,7,8,8,9,9,10,10,11,11,12,12,13,13,14,14,15,15,16,16,17,17,18,18,19,19,20,20,21,21,22,22,23,23,24,24,25,25,26,26,27,27,28,28,29,29],"right_children":[2,4,6,8,10,12,14,16,18,20,22,24,26,28,30,32,34,36,38,40,42,44,46,48,50,52,54,56,58,60,-1,-1,-1,-1,-1,-1,-1,-1,-1,-1,-1,-1,-1,-1,-1,-1,-1,-1,-1,-1,-1,-1,-1,-1,-1,-1,-1,-1,-1,-1,-1],"split_conditions":[6.393014E-1,3.3257728E0,3.3257728E0,-1.0286707E0,1.0386158E0,1.1535954E0,1.565739E0,1.0386158E0,1.1535954E0,2.6582313E-1,-1.6187102E-1,-5.496531E-1,1.0346106E0,1.0197818E0,-4.2799246E-1,1.6690809E0,-5.496531E-1,-5.496531E-1,2.3095121E1,-6.713137E-1,-1.6485228E-1,-1.0286707E0,-1.3374537E0,9.505313E-1,1.0386158E0,1.0386158E0,-1.638038E-1,-7.507956E-1,-1.2796167E0,-5.025103E-1,1.6367307E-1,-5.0520837E-2,-7.7448525E-2,-3.766983E-2,-1.5719865E-2,-2.2534102E-2,2.8329672E-2,-3.842633E-2,5.922718E-2,-1.9029375E-2,1.2432215E-2,-1.2034931E-2,5.3008236E-2,3.150818E-2,7.301405E-2,1.7491277E-2,9.623434E-2,8.434428E-3,4.9575586E-2,5.5992093E-2,9.042982E-2,-1.1905221E-2,2.3208475E-2,4.2414248E-2,8.302716E-2,1.30066965E-2,8.431676E-2,3.5541456E-2,1.5079498E-1,3.696823E-2,1.0005844E-1],"split_indices":[0,2,2,0,3,4,3,3,4,0,1,4,0,0,4,16,4,4,12,4,1,0,0,0,3,3,1,1,4,1,0,0,0,0,0,0,0,0,0,0,0,0,0,0,0,0,0,0,0,0,0,0,0,0,0,0,0,0,0,0,0],"split_type":[0,0,0,0,0,0,0,0,0,0,0,0,0,0,0,0,0,0,0,0,0,0,0,0,0,0,0,0,0,0,0,0,0,0,0,0,0,0,0,0,0,0,0,0,0,0,0,0,0,0,0,0,0,0,0,0,0,0,0,0,0],"sum_hessian":[6.947E3,3.61E3,3.337E3,3.226E3,3.84E2,3.145E3,1.92E2,2.339E3,8.87E2,2.69E2,1.15E2,2.51E3,6.35E2,1.59E2,3.3E1,1.722E3,6.17E2,6.76E2,2.11E2,2.28E2,4.1E1,8.1E1,3.4E1,1.367E3,1.143E3,5.82E2,5.3E1,1.43E2,1.6E1,1.4E1,1.9E1,1.227E3,4.95E2,2.99E2,3.18E2,3.85E2,2.91E2,2.1E2,1E0,5.4E1,1.74E2,1E0,4E1,6.9E1,1.2E1,5E0,2.9E1,1.08E3,2.87E2,8.51E2,2.92E2,4.53E2,1.29E2,4.4E1,9E0,7E0,1.36E2,1E0,1.5E1,2E0,1.2E1],"tree_param":{"num_deleted":"0","num_feature":"17","num_nodes":"61","size_leaf_vector":"1"}},{"base_weights":[1.8222459E-3,-3.6863545E-1,4.0257746E-1,-4.4616762E-1,2.821828E-1,2.8894672E-1,7.004672E-1,-5.7394546E-1,-1.0895336E-1,1.8015021E-1,7.5518554E-1,2.1579382E-1,8.0863935E-1,6.5017456E-1,1.4656988E0,-6.705454E-1,-3.0369365E-1,-2.250116E-1,2.1449791E-1,1.0035253E-1,6.747914E-1,4.460936E-1,1.1554784E0,3.0571464E-1,-1.0956318E-1,6.315549E-1,1.2449621E0,5.612753E-1,1.0389347E0,1.239189E0,1.8415765E0,-6.878968E-2,-4.4081997E-2,-1.8853135E-2,-4.4779673E-2,-1.05657615E-2,-3.9107136E-2,2.4523437E-2,-1.6289828E-2,2.7095782E-2,-7.5797453E-3,3.814853E-2,6.558944E-2,5.4349236E-2,9.612859E-4,3.472758E-2,1.0301434E-1,1.7521901E-3,4.915662E-2,-1.1706399E-2,4.2882603E-2,4.2653296E-2,1.0832373E-1,8.548267E-2,1.31909E-1,5.068663E-2,1.7296273E-2,7.35675E-2,1.3172731E-1,8.53463E-2,1.2920919E-1,1.5309487E-1,2.1744156E-2],"categories":[],"categories_nodes":[],"categories_segments":[],"categories_sizes":[],"default_left":[0,0,0,0,0,0,0,0,0,0,0,0,0,0,0,0,0,0,0,0,0,0,0,0,0,0,0,0,0,0,0,0,0,0,0,0,0,0,0,0,0,0,0,0,0,0,0,0,0,0,0,0,0,0,0,0,0,0,0,0,0,0,0],"id":14,"left_children":[1,3,5,7,9,11,13,15,17,19,21,23,25,27,29,31,33,35,37,39,41,43,45,47,49,51,53,55,57,59,61,-1,-1,-1,-1,-1,-1,-1,-1,-1,-1,-1,-1,-1,-1,-1,-1,-1,-1,-1,-1,-1,-1,-1,-1,-1,-1,-1,-1,-1,-1,-1,-1],"loss_changes":[1.0316682E3,1.8233466E2,1.1278699E2,1.3898407E2,1.8444704E1,9.1750656E1,3.449225E1,6.088513E1,3.3383064E1,1.2484131E1,7.8980064E0,6.2086258E1,2.2238998E1,2.9346222E1,2.4857788E0,3.851477E1,1.0633091E1,1.5971535E1,9.106617E0,1.28198395E1,8.7253E-1,4.04216E0,2.206688E0,1.4561945E2,1.0997227E1,1.4490257E1,4.295212E0,1.7503586E1,1.008873E1,7.391548E-1,1.6305771E0,0E0,0E0,0E0,0E0,0E0,0E0,0E0,0E0,0E0,0E0,0E0,0E0,0E0,0E0,0E0,0E0,0E0,0E0,0E0,0E0,0E0,0E0,0E0,0E0,0E0,0E0,0E0,0E0,0E0,0E0,0E0,0E0],"parents":[2147483647,0,0,1,1,2,2,3,3,4,4,5,5,6,6,7,7,8,8,9,9,10,10,11,11,12,12,13,13,14,14,15,15,16,16,17,17,18,18,19,19,20,20,21,21,22,22,23,23,24,24,25,25,26,26,27,27,28,28,29,29,30,30],"right_children":[2,4,6,8,10,12,14,16,18,20,22,24,26,28,30,32,34,36,38,40,42,44,46,48,50,52,54,56,58,60,62,-1,-1,-1,-1,-1,-1,-1,-1,-1,-1,-1,-1,-1,-1,-1,-1,-1,-1,-1,-1,-1,-1,-1,-1,-1,-1,-1,-1,-1,-1,-1,-1],"split_conditions":[6.393014E-1,3.3257728E0,1.0386158E0,-1.0286707E0,5.081547E-1,1.0061167E0,3.3257728E0,1.0386158E0,1.0386158E0,3.5039806E-1,1.8031058E-1,1.1535954E0,1.1043447E0,9.505313E-1,6.66953E-1,-5.496531E-1,1.1535954E0,1.1535954E0,1.1535954E0,1.6690809E0,-5.496531E-1,5.8649976E-2,-1.5630834E-2,-5.496531E-1,3.3257728E0,-1.638038E-1,1.2381054E0,1.1535954E0,1.1043447E0,8.910714E-1,1.3969167E0,-6.878968E-2,-4.4081997E-2,-1.8853135E-2,-4.4779673E-2,-1.05657615E-2,-3.9107136E-2,2.4523437E-2,-1.6289828E-2,2.7095782E-2,-7.5797453E-3,3.814853E-2,6.558944E-2,5.4349236E-2,9.612859E-4,3.472758E-2,1.0301434E-1,1.7521901E-3,4.915662E-2,-1.1706399E-2,4.2882603E-2,4.2653296E-2,1.0832373E-1,8.548267E-2,1.31909E-1,5.068663E-2,1.7296273E-2,7.35675E-2,1.3172731E-1,8.53463E-2,1.2920919E-1,1.5309487E-1,2.1744156E-2],"split_indices":[0,2,3,0,1,0,2,3,3,0,4,4,0,0,4,4,4,4,4,16,4,4,3,4,2,1,0,4,0,0,4,0,0,0,0,0,0,0,0,0,0,0,0,0,0,0,0,0,0,0,0,0,0,0,0,0,0,0,0,0,0,0,0],"split_type":[0,0,0,0,0,0,0,0,0,0,0,0,0,0,0,0,0,0,0,0,0,0,0,0,0,0,0,0,0,0,0,0,0,0,0,0,0,0,0,0,0,0,0,0,0,0,0,0,0,0,0,0,0,0,0,0,0,0,0,0,0,0,0],"sum_hessian":[6.947E3,3.61E3,3.337E3,3.226E3,3.84E2,2.417E3,9.2E2,2.339E3,8.87E2,3.17E2,6.7E1,2.12E3,2.97E2,8.65E2,5.5E1,1.722E3,6.17E2,6.53E2,2.34E2,2.74E2,4.3E1,3.9E1,2.8E1,1.661E3,4.59E2,2.13E2,8.4E1,7.06E2,1.59E2,3.7E1,1.8E1,6.64E2,1.058E3,4.89E2,1.28E2,4.84E2,1.69E2,1.92E2,4.2E1,1.23E2,1.51E2,2E1,2.3E1,2.5E1,1.4E1,5E0,2.3E1,8.66E2,7.95E2,4.35E2,2.4E1,1.89E2,2.4E1,6.1E1,2.3E1,5.83E2,1.23E2,1.35E2,2.4E1,2.8E1,9E0,1.7E1,1E0],"tree_param":{"num_deleted":"0","num_feature":"17","num_nodes":"63","size_leaf_vector":"1"}},{"base_weights":[1.8508675E-3,-3.3911735E-1,3.7070477E-1,-4.1054174E-1,2.6042977E-1,3.2775065E-1,1.0689585E0,-5.2628434E-1,-9.487986E-2,1.2277946E-1,5.7857764E-1,2.7670342E-1,8.956915E-1,8.947049E-1,1.3311881E0,-4.3274695E-1,-7.771361E-1,-1.9994417E-1,1.9525369E-1,4.5132063E-2,5.432193E-1,4.2685083E-1,9.175211E-1,1.7182976E-1,5.4926527E-1,6.8175334E-1,1.2130954E0,8.155278E-1,1.5327401E0,1.3854365E-1,8.955491E-1,-5.3810827E-2,-9.676379E-3,-6.778753E-2,-3.9829988E-2,-3.0973036E-2,-5.718042E-3,2.2797493E-2,-1.8195936E-2,-1.2861206E-2,1.324153E-2,-1.1250343E-2,4.506628E-2,3.0020425E-2,9.170964E-2,1.2764893E-2,8.308232E-2,2.039903E-2,-1.0227578E-2,3.0329581E-2,5.747723E-2,4.5995925E-2,7.7592656E-2,1.0636184E-1,5.307557E-2,1.7602913E-2,6.939526E-2,3.7385482E-2,1.3592741E-1,5.5992723E-2,1.6374335E-1],"categories":[],"categories_nodes":[],"categories_segments":[],"categories_sizes":[],"default_left":[0,0,0,0,0,0,0,0,0,0,0,0,0,0,0,0,0,0,0,0,0,0,0,0,0,0,0,0,0,0,0,0,0,0,0,0,0,0,0,0,0,0,0,0,0,0,0,0,0,0,0,0,0,0,0,0,0,0,0,0,0],"id":15,"left_children":[1,3,5,7,9,11,13,15,17,19,21,23,25,27,29,31,33,35,37,39,41,43,45,47,49,51,53,55,57,-1,59,-1,-1,-1,-1,-1,-1,-1,-1,-1,-1,-1,-1,-1,-1,-1,-1,-1,-1,-1,-1,-1,-1,-1,-1,-1,-1,-1,-1,-1,-1],"loss_changes":[8.73958E2,1.5473825E2,9.976584E1,1.1785016E2,1.6789326E1,9.096039E1,7.628006E0,5.5062256E1,2.6467527E1,8.789919E0,5.573864E0,8.245784E1,1.676033E1,4.7616196E0,1.1538116E1,1.2871619E2,1.2126221E1,1.5293287E1,8.82498E0,5.7029133E0,6.567898E-1,2.613985E0,3.0444622E0,5.2041416E1,2.2816101E1,4.274208E0,5.709366E0,3.1478195E0,1.3328075E0,0E0,7.1261425E0,0E0,0E0,0E0,0E0,0E0,0E0,0E0,0E0,0E0,0E0,0E0,0E0,0E0,0E0,0E0,0E0,0E0,0E0,0E0,0E0,0E0,0E0,0E0,0E0,0E0,0E0,0E0,0E0,0E0,0E0],"parents":[2147483647,0,0,1,1,2,2,3,3,4,4,5,5,6,6,7,7,8,8,9,9,10,10,11,11,12,12,13,13,14,14,15,15,16,16,17,17,18,18,19,19,20,20,21,21,22,22,23,23,24,24,25,25,26,26,27,27,28,28,30,30],"right_children":[2,4,6,8,10,12,14,16,18,20,22,24,26,28,30,32,34,36,38,40,42,44,46,48,50,52,54,56,58,-1,60,-1,-1,-1,-1,-1,-1,-1,-1,-1,-1,-1,-1,-1,-1,-1,-1,-1,-1,-1,-1,-1,-1,-1,-1,-1,-1,-1,-1,-1,-1],"split_conditions":[6.393014E-1,3.3257728E0,3.3257728E0,2.6582313E-1,1.0386158E0,1.0346106E0,6.66953E-1,1.1535954E0,1.0386158E0,2.6582313E-1,-1.6187102E-1,1.0386158E0,1.1043447E0,1.012104E0,1.1535954E0,-5.496531E-1,1.0386158E0,-5.496531E-1,1.1535954E0,-5.496531E-1,-1.6485228E-1,2.3095121E1,-1.3374537E0,1.1535954E0,-5.496531E-1,1.0386158E0,1.1535954E0,-5.025103E-1,-1.2796167E0,1.3854365E-1,1.962E1,-5.3810827E-2,-9.676379E-3,-6.778753E-2,-3.9829988E-2,-3.0973036E-2,-5.718042E-3,2.2797493E-2,-1.8195936E-2,-1.2861206E-2,1.324153E-2,-1.1250343E-2,4.506628E-2,3.0020425E-2,9.170964E-2,1.2764893E-2,8.308232E-2,2.039903E-2,-1.0227578E-2,3.0329581E-2,5.747723E-2,4.5995925E-2,7.7592656E-2,1.0636184E-1,5.307557E-2,1.7602913E-2,6.939526E-2,3.7385482E-2,1.3592741E-1,5.5992723E-2,1.6374335E-1],"split_indices":[0,2,2,0,3,0,4,4,3,0,1,3,0,0,4,4,3,4,4,4,1,12,0,4,4,3,4,1,4,0,6,0,0,0,0,0,0,0,0,0,0,0,0,0,0,0,0,0,0,0,0,0,0,0,0,0,0,0,0,0,0],"split_type":[0,0,0,0,0,0,0,0,0,0,0,0,0,0,0,0,0,0,0,0,0,0,0,0,0,0,0,0,0,0,0,0,0,0,0,0,0,0,0,0,0,0,0,0,0,0,0,0,0,0,0,0,0,0,0,0,0,0,0,0,0],"sum_hessian":[6.947E3,3.61E3,3.337E3,3.226E3,3.84E2,3.145E3,1.92E2,2.36E3,8.66E2,2.69E2,1.15E2,2.887E3,2.58E2,1.18E2,7.4E1,1.721E3,6.39E2,6.36E2,2.3E2,2.28E2,4.1E1,8.1E1,3.4E1,2.086E3,8.01E2,1.56E2,1.02E2,1.07E2,1.1E1,3.7E1,3.7E1,9.72E2,7.49E2,5.09E2,1.3E2,2.58E2,3.78E2,1.9E2,4E1,8.4E1,1.44E2,1E0,4E1,7.7E1,4E0,5E0,2.9E1,1.633E3,4.53E2,4.01E2,4E2,1.16E2,4E1,8.3E1,1.9E1,9E0,9.8E1,2E0,9E0,3.3E1,4E0],"tree_param":{"num_deleted":"0","num_feature":"17","num_nodes":"61","size_leaf_vector":"1"}},{"base_weights":[1.8536408E-3,-2.8894272E-1,3.6927944E-1,-3.5055643E-1,2.523408E-1,3.290479E-1,1.0096105E0,-4.861043E-1,-7.299303E-2,1.1413338E-1,5.666475E-1,4.0962586E-1,1.1537163E-2,8.463079E-1,1.2450784E0,-5.7328993E-1,-2.4224189E-1,-1.667515E-1,1.8896517E-1,1.989464E-1,-1.8944956E-1,4.3538037E-1,1.0790448E0,1.7618713E-1,6.87499E-1,-4.3651707E-2,5.913352E-1,7.676677E-1,1.4245638E0,1.2621044E-1,8.6870337E-1,-3.865334E-2,-6.362094E-2,-3.5771035E-2,-1.292647E-2,-2.7842218E-2,-3.4821557E-3,3.7441085E-4,3.1506944E-2,5.0268797E-3,5.9860595E-2,5.284235E-3,-2.6019175E-2,5.0373316E-2,1.4610216E-2,6.2318385E-2,1.2654416E-1,4.47059E-3,3.501363E-2,4.9473356E-2,8.739751E-2,-9.460555E-3,1.662508E-2,1.2308452E-2,5.7759937E-2,1.6335502E-2,6.57397E-2,3.5391565E-2,1.2614065E-1,5.1191095E-2,1.3801895E-1],"categories":[],"categories_nodes":[],"categories_segments":[],"categories_sizes":[],"default_left":[0,0,0,0,0,0,0,0,0,0,0,0,0,0,0,0,0,0,0,0,0,0,0,0,0,0,0,0,0,0,0,0,0,0,0,0,0,0,0,0,0,0,0,0,0,0,0,0,0,0,0,0,0,0,0,0,0,0,0,0,0],"id":16,"left_children":[1,3,5,7,9,11,13,15,17,19,21,23,25,27,29,31,33,35,37,39,41,43,45,47,49,51,53,55,57,-1,59,-1,-1,-1,-1,-1,-1,-1,-1,-1,-1,-1,-1,-1,-1,-1,-1,-1,-1,-1,-1,-1,-1,-1,-1,-1,-1,-1,-1,-1,-1],"loss_changes":[7.424733E2,1.2945502E2,7.875568E1,1.3100589E2,1.718082E1,7.393411E1,5.906204E0,4.961255E1,2.8129065E1,7.169827E0,7.6687775E0,1.4939581E2,1.8776875E1,3.9085617E0,7.6413345E0,3.4084045E1,1.0141514E1,1.8815517E1,1.1400098E1,1.617741E1,2.137861E0,4.6974277E0,2.388443E0,3.9423473E1,2.875531E1,1.0080269E1,2.8042202E0,2.8489227E0,1.0962162E0,0E0,5.9515877E0,0E0,0E0,0E0,0E0,0E0,0E0,0E0,0E0,0E0,0E0,0E0,0E0,0E0,0E0,0E0,0E0,0E0,0E0,0E0,0E0,0E0,0E0,0E0,0E0,0E0,0E0,0E0,0E0,0E0,0E0],"parents":[2147483647,0,0,1,1,2,2,3,3,4,4,5,5,6,6,7,7,8,8,9,9,10,10,11,11,12,12,13,13,14,14,15,15,16,16,17,17,18,18,19,19,20,20,21,21,22,22,23,23,24,24,25,25,26,26,27,27,28,28,30,30],"right_children":[2,4,6,8,10,12,14,16,18,20,22,24,26,28,30,32,34,36,38,40,42,44,46,48,50,52,54,56,58,-1,60,-1,-1,-1,-1,-1,-1,-1,-1,-1,-1,-1,-1,-1,-1,-1,-1,-1,-1,-1,-1,-1,-1,-1,-1,-1,-1,-1,-1,-1,-1],"split_conditions":[6.82501E-1,3.3257728E0,3.3257728E0,-1.0286707E0,1.0386158E0,1.1535954E0,6.66953E-1,1.0386158E0,1.0386158E0,1.1535954E0,-1.0286707E0,-5.496531E-1,-1.638038E-1,1.012104E0,1.1535954E0,1.6690809E0,6.217932E-1,-5.496531E-1,-5.496531E-1,5.4529244E-1,1.6690809E0,1.6690809E0,1.0352798E0,1.0386158E0,9.862401E-1,1.0386158E0,8.245109E-1,-5.025103E-1,-1.2796167E0,1.2621044E-1,1.0386158E0,-3.865334E-2,-6.362094E-2,-3.5771035E-2,-1.292647E-2,-2.7842218E-2,-3.4821557E-3,3.7441085E-4,3.1506944E-2,5.0268797E-3,5.9860595E-2,5.284235E-3,-2.6019175E-2,5.0373316E-2,1.4610216E-2,6.2318385E-2,1.2654416E-1,4.47059E-3,3.501363E-2,4.9473356E-2,8.739751E-2,-9.460555E-3,1.662508E-2,1.2308452E-2,5.7759937E-2,1.6335502E-2,6.57397E-2,3.5391565E-2,1.2614065E-1,5.1191095E-2,1.3801895E-1],"split_indices":[0,2,2,0,3,4,4,3,3,4,0,4,1,0,4,16,11,4,4,4,16,16,1,3,0,3,0,1,4,0,3,0,0,0,0,0,0,0,0,0,0,0,0,0,0,0,0,0,0,0,0,0,0,0,0,0,0,0,0,0,0],"split_type":[0,0,0,0,0,0,0,0,0,0,0,0,0,0,0,0,0,0,0,0,0,0,0,0,0,0,0,0,0,0,0,0,0,0,0,0,0,0,0,0,0,0,0,0,0,0,0,0,0,0,0,0,0,0,0,0,0,0,0,0,0],"sum_hessian":[6.947E3,3.878E3,3.069E3,3.482E3,3.96E2,2.889E3,1.8E2,2.339E3,1.143E3,2.76E2,1.2E2,2.304E3,5.85E2,1.09E2,7.1E1,1.722E3,6.17E2,8.42E2,3.01E2,2.16E2,6E1,9.7E1,2.3E1,1.253E3,1.051E3,5.35E2,5E1,9.8E1,1.1E1,3.6E1,3.5E1,1.227E3,4.95E2,1.73E2,4.44E2,3.4E2,5.02E2,1.59E2,1.42E2,1.74E2,4.2E1,2.1E1,3.9E1,5.4E1,4.3E1,1.6E1,7E0,8.59E2,3.94E2,9E2,1.51E2,4.13E2,1.22E2,1.2E1,3.8E1,9E0,8.9E1,2E0,9E0,2.9E1,6E0],"tree_param":{"num_deleted":"0","num_feature":"17","num_nodes":"61","size_leaf_vector":"1"}},{"base_weights":[1.8434966E-3,-2.8741267E-1,3.1475607E-1,-3.4803295E-1,2.2144188E-1,2.3680787E-1,6.342915E-1,-4.4570813E-1,-8.164406E-2,1.3049836E-1,6.0834426E-1,1.396711E-1,4.8402056E-1,5.3287125E-1,1.1256282E0,-3.604404E-1,-6.744352E-1,1.2963703E-2,-3.8722113E-1,6.254152E-2,5.557497E-1,3.5622624E-1,9.578392E-1,-3.4983106E-2,2.6032183E-1,4.4264638E-1,1.1138985E0,4.9834746E-1,1.2296505E0,1.1962568E0,6.6472566E-1,-4.6593722E-2,-5.7581E-3,-5.868597E-2,-3.512395E-2,-1.777075E-2,2.5739262E-2,-3.1705916E-2,5.8790416E-2,2.1918265E-2,-8.9936E-3,2.9703183E-2,5.4904804E-2,1.125188E-2,5.522728E-2,1.0997813E-1,5.9500497E-2,-3.5905107E-3,1.5350199E-1,3.775825E-2,-8.999587E-3,4.0719308E-2,9.915039E-3,7.256888E-2,1.414098E-1,4.585427E-2,1.3946976E-2,1.0641711E-1,6.248229E-2,8.174954E-2,1.1447573E-1,2.2770645E-2,8.4540054E-2],"categories":[],"categories_nodes":[],"categories_segments":[],"categories_sizes":[],"default_left":[0,0,0,0,0,0,0,0,0,0,0,0,0,0,0,0,0,0,0,0,0,0,0,0,0,0,0,0,0,0,0,0,0,0,0,0,0,0,0,0,0,0,0,0,0,0,0,0,0,0,0,0,0,0,0,0,0,0,0,0,0,0,0],"id":17,"left_children":[1,3,5,7,9,11,13,15,17,19,21,23,25,27,29,31,33,35,37,39,41,43,45,47,49,51,53,55,57,59,61,-1,-1,-1,-1,-1,-1,-1,-1,-1,-1,-1,-1,-1,-1,-1,-1,-1,-1,-1,-1,-1,-1,-1,-1,-1,-1,-1,-1,-1,-1,-1,-1],"loss_changes":[6.289671E2,1.1146521E2,8.299008E1,8.392883E1,1.3467321E1,6.440849E1,3.198996E1,4.580362E1,2.5069956E1,9.010548E0,6.091114E0,4.0657307E1,1.9234848E1,1.2473358E1,2.8182068E0,1.1022397E2,8.587067E0,4.8200565E1,2.3851871E0,1.00559845E1,7.8075504E-1,3.0721235E0,1.654993E0,1.5344468E1,9.008826E1,1.4991959E1,4.6149445E0,1.2508011E1,8.893585E-2,2.4258118E0,2.2323122E0,0E0,0E0,0E0,0E0,0E0,0E0,0E0,0E0,0E0,0E0,0E0,0E0,0E0,0E0,0E0,0E0,0E0,0E0,0E0,0E0,0E0,0E0,0E0,0E0,0E0,0E0,0E0,0E0,0E0,0E0,0E0,0E0],"parents":[2147483647,0,0,1,1,2,2,3,3,4,4,5,5,6,6,7,7,8,8,9,9,10,10,11,11,12,12,13,13,14,14,15,15,16,16,17,17,18,18,19,19,20,20,21,21,22,22,23,23,24,24,25,25,26,26,27,27,28,28,29,29,30,30],"right_children":[2,4,6,8,10,12,14,16,18,20,22,24,26,28,30,32,34,36,38,40,42,44,46,48,50,52,54,56,58,60,62,-1,-1,-1,-1,-1,-1,-1,-1,-1,-1,-1,-1,-1,-1,-1,-1,-1,-1,-1,-1,-1,-1,-1,-1,-1,-1,-1,-1,-1,-1,-1,-1],"split_conditions":[6.393014E-1,3.3257728E0,9.550461E-1,2.6582313E-1,-1.6138358E-1,1.0386158E0,1.1043447E0,1.1535954E0,1.1535954E0,3.5039806E-1,1.8031058E-1,-5.496531E-1,3.3257728E0,3.240777E0,1.275256E0,-5.496531E-1,1.0386158E0,-5.496531E-1,2.3095121E1,1.6690809E0,-5.496531E-1,-1.1433845E0,1.0319349E0,2.3095121E1,1.1535954E0,1.1535954E0,-1.638038E-1,1.1535954E0,6.5778427E0,5.114925E-1,1.1836908E0,-4.6593722E-2,-5.7581E-3,-5.868597E-2,-3.512395E-2,-1.777075E-2,2.5739262E-2,-3.1705916E-2,5.8790416E-2,2.1918265E-2,-8.9936E-3,2.9703183E-2,5.4904804E-2,1.125188E-2,5.522728E-2,1.0997813E-1,5.9500497E-2,-3.5905107E-3,1.5350199E-1,3.775825E-2,-8.999587E-3,4.0719308E-2,9.915039E-3,7.256888E-2,1.414098E-1,4.585427E-2,1.3946976E-2,1.0641711E-1,6.248229E-2,8.174954E-2,1.1447573E-1,2.2770645E-2,8.4540054E-2],"split_indices":[0,2,0,0,1,3,0,4,4,0,4,4,2,1,4,4,3,4,12,16,4,0,4,12,4,4,1,4,1,3,0,0,0,0,0,0,0,0,0,0,0,0,0,0,0,0,0,0,0,0,0,0,0,0,0,0,0,0,0,0,0,0,0],"split_type":[0,0,0,0,0,0,0,0,0,0,0,0,0,0,0,0,0,0,0,0,0,0,0,0,0,0,0,0,0,0,0,0,0,0,0,0,0,0,0,0,0,0,0,0,0,0,0,0,0,0,0,0,0,0,0,0,0,0,0,0,0,0,0],"sum_hessian":[6.947E3,3.61E3,3.337E3,3.226E3,3.84E2,2.684E3,6.53E2,2.36E3,8.66E2,3.12E2,7.2E1,1.928E3,7.56E2,5.43E2,1.1E2,1.721E3,6.39E2,6.62E2,2.04E2,2.7E2,4.2E1,4.3E1,2.9E1,7.88E2,1.14E3,7.11E2,4.5E1,5.19E2,2.4E1,9.4E1,1.6E1,9.72E2,7.49E2,5.09E2,1.3E2,3.76E2,2.86E2,2.03E2,1E0,1.22E2,1.48E2,1.9E1,2.3E1,2.7E1,1.6E1,8E0,2.1E1,7.85E2,3E0,7.27E2,4.13E2,5.88E2,1.23E2,3.6E1,9E0,4.21E2,9.8E1,1.8E1,6E0,5.7E1,3.7E1,9E0,7E0],"tree_param":{"num_deleted":"0","num_feature":"17","num_nodes":"63","size_leaf_vector":"1"}},{"base_weights":[1.868483E-3,-2.4566916E-1,3.146361E-1,-2.9811445E-1,2.1506803E-1,2.7811226E-1,8.9606845E-1,-4.1171318E-1,-6.549284E-2,9.14687E-2,4.9624115E-1,2.3369083E-1,7.284564E-1,7.4618757E-1,1.1126076E0,-4.9051222E-1,-1.9135323E-1,1.3695183E-2,-3.3212462E-1,1.6915123E-1,-1.8637682E-1,3.8244954E-1,9.402136E-1,1.4670344E-1,4.5800155E-1,5.4949576E-1,9.941686E-1,6.7581165E-1,1.2646068E0,1.1214851E-1,7.844184E-1,-3.25958E-2,-5.5614036E-2,-9.9929824E-2,-1.4175229E-2,-1.6445413E-2,2.393264E-2,-2.7104251E-2,5.6438807E-2,3.7585844E-3,5.2993324E-2,2.9428082E-3,-2.4356518E-2,4.4116754E-2,1.2999612E-2,5.689027E-2,1.2071583E-1,1.02360295E-2,8.489998E-2,2.481317E-2,4.7989633E-2,3.635546E-2,6.4587265E-2,8.694698E-2,4.442011E-2,1.3355896E-2,5.7987437E-2,3.1058425E-2,1.1208473E-1,4.8928164E-2,1.3868473E-1],"categories":[],"categories_nodes":[],"categories_segments":[],"categories_sizes":[],"default_left":[0,0,0,0,0,0,0,0,0,0,0,0,0,0,0,0,0,0,0,0,0,0,0,0,0,0,0,0,0,0,0,0,0,0,0,0,0,0,0,0,0,0,0,0,0,0,0,0,0,0,0,0,0,0,0,0,0,0,0,0,0],"id":18,"left_children":[1,3,5,7,9,11,13,15,17,19,21,23,25,27,29,31,33,35,37,39,41,43,45,47,49,51,53,55,57,-1,59,-1,-1,-1,-1,-1,-1,-1,-1,-1,-1,-1,-1,-1,-1,-1,-1,-1,-1,-1,-1,-1,-1,-1,-1,-1,-1,-1,-1,-1,-1],"loss_changes":[5.380037E2,9.379436E1,6.494574E1,9.201312E1,1.3751474E1,5.7644028E1,5.044159E0,4.053824E1,2.4159014E1,6.0102224E0,5.7533817E0,5.1288925E1,1.1769684E1,3.1586304E0,5.7351913E0,2.900827E1,9.036953E0,5.53297E1,2.0546017E0,1.3045666E1,1.618603E0,3.5534878E0,2.0538692E0,3.2415962E1,1.5229431E1,3.4809952E0,3.5859528E0,2.34906E0,8.910675E-1,0E0,4.8447247E0,0E0,0E0,0E0,0E0,0E0,0E0,0E0,0E0,0E0,0E0,0E0,0E0,0E0,0E0,0E0,0E0,0E0,0E0,0E0,0E0,0E0,0E0,0E0,0E0,0E0,0E0,0E0,0E0,0E0,0E0],"parents":[2147483647,0,0,1,1,2,2,3,3,4,4,5,5,6,6,7,7,8,8,9,9,10,10,11,11,12,12,13,13,14,14,15,15,16,16,17,17,18,18,19,19,20,20,21,21,22,22,23,23,24,24,25,25,26,26,27,27,28,28,30,30],"right_children":[2,4,6,8,10,12,14,16,18,20,22,24,26,28,30,32,34,36,38,40,42,44,46,48,50,52,54,56,58,-1,60,-1,-1,-1,-1,-1,-1,-1,-1,-1,-1,-1,-1,-1,-1,-1,-1,-1,-1,-1,-1,-1,-1,-1,-1,-1,-1,-1,-1,-1,-1],"split_conditions":[6.82501E-1,3.3257728E0,3.3257728E0,-1.0286707E0,1.0386158E0,1.0346106E0,6.66953E-1,1.0386158E0,1.1535954E0,1.1535954E0,-1.0286707E0,1.0386158E0,1.1043447E0,1.012104E0,1.1535954E0,1.6690809E0,-4.4165206E-1,-5.496531E-1,2.3095121E1,5.4529244E-1,1.6690809E0,1.6690809E0,1.6970485E0,3.240777E0,-5.496531E-1,1.0386158E0,1.1535954E0,-5.025103E-1,-1.2796167E0,1.1214851E-1,1.962E1,-3.25958E-2,-5.5614036E-2,-9.9929824E-2,-1.4175229E-2,-1.6445413E-2,2.393264E-2,-2.7104251E-2,5.6438807E-2,3.7585844E-3,5.2993324E-2,2.9428082E-3,-2.4356518E-2,4.4116754E-2,1.2999612E-2,5.689027E-2,1.2071583E-1,1.02360295E-2,8.489998E-2,2.481317E-2,4.7989633E-2,3.635546E-2,6.4587265E-2,8.694698E-2,4.442011E-2,1.3355896E-2,5.7987437E-2,3.1058425E-2,1.1208473E-1,4.8928164E-2,1.3868473E-1],"split_indices":[0,2,2,0,3,0,4,3,4,4,0,3,0,0,4,16,1,4,12,4,16,16,1,1,4,3,4,1,4,0,6,0,0,0,0,0,0,0,0,0,0,0,0,0,0,0,0,0,0,0,0,0,0,0,0,0,0,0,0,0,0],"split_type":[0,0,0,0,0,0,0,0,0,0,0,0,0,0,0,0,0,0,0,0,0,0,0,0,0,0,0,0,0,0,0,0,0,0,0,0,0,0,0,0,0,0,0,0,0,0,0,0,0,0,0,0,0,0,0,0,0,0,0,0,0],"sum_hessian":[6.947E3,3.878E3,3.069E3,3.482E3,3.96E2,2.889E3,1.8E2,2.339E3,1.143E3,2.76E2,1.2E2,2.631E3,2.58E2,1.09E2,7.1E1,1.722E3,6.17E2,8.82E2,2.61E2,2.16E2,6E1,9.7E1,2.3E1,1.897E3,7.34E2,1.56E2,1.02E2,9.8E1,1.1E1,3.6E1,3.5E1,1.227E3,4.95E2,7E0,6.1E2,4.99E2,3.83E2,2.6E2,1E0,1.74E2,4.2E1,2.1E1,3.9E1,5.4E1,4.3E1,1.8E1,5E0,1.86E3,3.7E1,3.61E2,3.73E2,1.16E2,4E1,8.3E1,1.9E1,9E0,8.9E1,2E0,9E0,3.1E1,4E0],"tree_param":{"num_deleted":"0","num_feature":"17","num_nodes":"61","size_leaf_vector":"1"}},{"base_weights":[1.8657002E-3,-2.2598866E-1,2.8976315E-1,-2.743128E-1,1.9854282E-1,2.6132756E-1,9.4665E-1,-3.774627E-1,-5.7205804E-2,1.09823205E-1,5.718214E-1,3.2891348E-1,-2.3833163E-2,1.246588E0,5.5643517E-1,-2.9987434E-1,-5.85634E-1,-1.4077763E-1,1.7463157E-1,2.7502576E-1,-2.8782476E-2,3.4514374E-1,8.89736E-1,1.3436629E-1,5.657623E-1,-6.153861E-2,6.5063196E-1,3.8398534E-1,1.2923555E0,4.4912958E-1,9.643377E-1,-4.0408663E-2,-2.6574123E-3,-4.8191722E-2,8.460321E-3,-2.3206994E-2,-3.1875642E-3,2.3759736E-3,2.7038833E-2,5.673134E-3,3.487654E-2,-4.87079E-2,2.6423563E-3,4.2782936E-2,-3.5088754E-3,1.0398596E-1,5.303116E-2,2.9593825E-3,2.7743462E-2,3.8716454E-2,6.313451E-2,-9.500232E-3,1.2294889E-2,3.7848912E-2,1.1548898E-1,-1.0931587E-2,4.3864325E-2,1.2391302E-1,9.268261E-2,2.7336502E-3,4.4828568E-2,-2.0944595E-3,8.5280605E-2],"categories":[],"categories_nodes":[],"categories_segments":[],"categories_sizes":[],"default_left":[0,0,0,0,0,0,0,0,0,0,0,0,0,0,0,0,0,0,0,0,0,0,0,0,0,0,0,0,0,0,0,0,0,0,0,0,0,0,0,0,0,0,0,0,0,0,0,0,0,0,0,0,0,0,0,0,0,0,0,0,0,0,0],"id":19,"left_children":[1,3,5,7,9,11,13,15,17,19,21,23,25,27,29,31,33,35,37,39,41,43,45,47,49,51,53,55,57,59,61,-1,-1,-1,-1,-1,-1,-1,-1,-1,-1,-1,-1,-1,-1,-1,-1,-1,-1,-1,-1,-1,-1,-1,-1,-1,-1,-1,-1,-1,-1,-1,-1],"loss_changes":[4.5584518E2,7.963263E1,5.7097046E1,7.797864E1,1.30847025E1,5.67471E1,1.4170471E1,3.7958496E1,2.1782793E1,7.381076E0,5.1697865E0,1.0959027E2,1.4408559E1,2.306778E0,2.0617905E0,9.4223114E1,7.4809113E0,1.243651E1,7.045168E0,4.797724E0,6.3305926E0,3.4169683E0,2.0221996E0,2.7042976E1,1.9229462E1,6.6185164E0,3.5401192E0,5.026694E-1,5.0585175E-1,2.1501312E0,1.1356726E0,0E0,0E0,0E0,0E0,0E0,0E0,0E0,0E0,0E0,0E0,0E0,0E0,0E0,0E0,0E0,0E0,0E0,0E0,0E0,0E0,0E0,0E0,0E0,0E0,0E0,0E0,0E0,0E0,0E0,0E0,0E0,0E0],"parents":[2147483647,0,0,1,1,2,2,3,3,4,4,5,5,6,6,7,7,8,8,9,9,10,10,11,11,12,12,13,13,14,14,15,15,16,16,17,17,18,18,19,19,20,20,21,21,22,22,23,23,24,24,25,25,26,26,27,27,28,28,29,29,30,30],"right_children":[2,4,6,8,10,12,14,16,18,20,22,24,26,28,30,32,34,36,38,40,42,44,46,48,50,52,54,56,58,60,62,-1,-1,-1,-1,-1,-1,-1,-1,-1,-1,-1,-1,-1,-1,-1,-1,-1,-1,-1,-1,-1,-1,-1,-1,-1,-1,-1,-1,-1,-1,-1,-1],"split_conditions":[6.82501E-1,3.3257728E0,-1.638038E-1,2.6582313E-1,-1.6138358E-1,1.1535954E0,1.1535954E0,1.1535954E0,1.0386158E0,1.6690809E0,1.8031058E-1,-5.496531E-1,3.3257728E0,7.190439E-1,1.0386158E0,-5.496531E-1,-1.638038E-1,-5.496531E-1,-5.496531E-1,-5.496531E-1,-7.507956E-1,5.8649976E-2,1.0319349E0,1.0386158E0,1.0386158E0,9.453175E-1,1.0386158E0,1.3828373E0,-5.427541E-1,8.245109E-1,7.456189E-1,-4.0408663E-2,-2.6574123E-3,-4.8191722E-2,8.460321E-3,-2.3206994E-2,-3.1875642E-3,2.3759736E-3,2.7038833E-2,5.673134E-3,3.487654E-2,-4.87079E-2,2.6423563E-3,4.2782936E-2,-3.5088754E-3,1.0398596E-1,5.303116E-2,2.9593825E-3,2.7743462E-2,3.8716454E-2,6.313451E-2,-9.500232E-3,1.2294889E-2,3.7848912E-2,1.1548898E-1,-1.0931587E-2,4.3864325E-2,1.2391302E-1,9.268261E-2,2.7336502E-3,4.4828568E-2,-2.0944595E-3,8.5280605E-2],"split_indices":[0,2,1,0,1,4,4,4,3,16,4,4,2,0,3,4,1,4,4,4,1,4,4,3,3,0,3,1,3,0,0,0,0,0,0,0,0,0,0,0,0,0,0,0,0,0,0,0,0,0,0,0,0,0,0,0,0,0,0,0,0,0,0],"split_type":[0,0,0,0,0,0,0,0,0,0,0,0,0,0,0,0,0,0,0,0,0,0,0,0,0,0,0,0,0,0,0,0,0,0,0,0,0,0,0,0,0,0,0,0,0,0,0,0,0,0,0,0,0,0,0,0,0,0,0,0,0,0,0],"sum_hessian":[6.947E3,3.878E3,3.069E3,3.482E3,3.96E2,2.943E3,1.26E2,2.36E3,1.122E3,3.21E2,7.5E1,2.379E3,5.64E2,7E1,5.6E1,1.721E3,6.39E2,8.25E2,2.97E2,1.46E2,1.75E2,4.5E1,3E1,1.307E3,1.072E3,5.35E2,2.9E1,4E0,6.6E1,4.6E1,1E1,9.72E2,7.49E2,6.24E2,1.5E1,3.32E2,4.93E2,1.58E2,1.39E2,6.5E1,8.1E1,1.6E1,1.59E2,3E1,1.5E1,9E0,2.1E1,8.97E2,4.1E2,7.87E2,2.85E2,4.23E2,1.12E2,2.5E1,4E0,1E0,3E0,1.9E1,4.7E1,1E1,3.6E1,1E0,9E0],"tree_param":{"num_deleted":"0","num_feature":"17","num_nodes":"63","size_leaf_vector":"1"}},{"base_weights":[1.8287575E-3,-2.0788094E-1,2.6680014E-1,-2.8810343E-1,1.1676306E-2,2.3381257E-1,7.920337E-1,-3.7092066E-1,-1.0129291E-1,-4.4252764E-2,4.363634E-1,1.5596843E-1,4.5652133E-1,6.43254E-1,9.8025227E-1,-4.203462E-1,6.2468187E-3,-3.238948E-2,-3.149679E-1,-1.4597222E-1,1.6404817E-1,3.3085716E-1,8.489987E-1,2.1835202E-1,-8.7370306E-2,3.8707408E-1,8.8765144E-1,-1.0835171E-2,6.763982E-1,6.109342E-1,1.1055987E0,-2.7442152E-2,-4.8784904E-2,-1.9019874E-2,6.6316267E-3,-1.8563773E-2,1.5715953E-2,-2.5828635E-2,5.4308757E-2,-2.697397E-2,-5.6705526E-3,1.7419322E-3,2.5767092E-2,2.1268701E-2,6.566131E-2,5.163024E-2,1.0818382E-1,2.569386E-3,3.4903664E-2,-8.98662E-3,2.500072E-2,2.8343782E-2,8.5776955E-2,7.755542E-2,3.9979633E-2,2.3397319E-2,-1.8848209E-2,4.095837E-2,6.475529E-2,1.9425083E-2,7.179735E-2,9.919624E-2,6.8246156E-2],"categories":[],"categories_nodes":[],"categories_segments":[],"categories_sizes":[],"default_left":[0,0,0,0,0,0,0,0,0,0,0,0,0,0,0,0,0,0,0,0,0,0,0,0,0,0,0,0,0,0,0,0,0,0,0,0,0,0,0,0,0,0,0,0,0,0,0,0,0,0,0,0,0,0,0,0,0,0,0,0,0,0,0],"id":20,"left_children":[1,3,5,7,9,11,13,15,17,19,21,23,25,27,29,31,33,35,37,39,41,43,45,47,49,51,53,55,57,59,61,-1,-1,-1,-1,-1,-1,-1,-1,-1,-1,-1,-1,-1,-1,-1,-1,-1,-1,-1,-1,-1,-1,-1,-1,-1,-1,-1,-1,-1,-1,-1,-1],"loss_changes":[3.8613547E2,6.832585E1,5.300618E1,4.3915924E1,2.4698006E1,5.003148E1,4.438011E0,3.6689514E1,1.2857648E1,1.9495955E1,4.986912E0,3.2550556E1,2.2052155E1,2.2619781E0,2.9353867E0,2.528061E1,4.3024373E0,3.0291998E1,1.8893776E0,8.849003E0,6.783473E0,2.9024372E0,1.5868263E0,6.9230286E1,4.4072065E0,1.4127106E1,2.7834396E0,4.779399E-1,1.7511826E0,2.1026125E0,8.76091E-1,0E0,0E0,0E0,0E0,0E0,0E0,0E0,0E0,0E0,0E0,0E0,0E0,0E0,0E0,0E0,0E0,0E0,0E0,0E0,0E0,0E0,0E0,0E0,0E0,0E0,0E0,0E0,0E0,0E0,0E0,0E0,0E0],"parents":[2147483647,0,0,1,1,2,2,3,3,4,4,5,5,6,6,7,7,8,8,9,9,10,10,11,11,12,12,13,13,14,14,15,15,16,16,17,17,18,18,19,19,20,20,21,21,22,22,23,23,24,24,25,25,26,26,27,27,28,28,29,29,30,30],"right_children":[2,4,6,8,10,12,14,16,18,20,22,24,26,28,30,32,34,36,38,40,42,44,46,48,50,52,54,56,58,60,62,-1,-1,-1,-1,-1,-1,-1,-1,-1,-1,-1,-1,-1,-1,-1,-1,-1,-1,-1,-1,-1,-1,-1,-1,-1,-1,-1,-1,-1,-1,-1,-1],"split_conditions":[6.82501E-1,1.0386158E0,3.3257728E0,2.6582313E-1,3.3257728E0,9.337633E-1,8.60435E-1,3.3257728E0,1.1535954E0,-1.0286707E0,-1.0286707E0,1.1535954E0,1.1043447E0,-7.507956E-1,-7.929743E-1,1.6690809E0,-6.713137E-1,-5.496531E-1,2.3095121E1,6.217932E-1,-5.496531E-1,1.962E1,1.6970485E0,-5.496531E-1,-1.638038E-1,3.240777E0,1.1535954E0,8.268649E-1,-4.2799246E-1,5.114925E-1,1.6690809E0,-2.7442152E-2,-4.8784904E-2,-1.9019874E-2,6.6316267E-3,-1.8563773E-2,1.5715953E-2,-2.5828635E-2,5.4308757E-2,-2.697397E-2,-5.6705526E-3,1.7419322E-3,2.5767092E-2,2.1268701E-2,6.566131E-2,5.163024E-2,1.0818382E-1,2.569386E-3,3.4903664E-2,-8.98662E-3,2.500072E-2,2.8343782E-2,8.5776955E-2,7.755542E-2,3.9979633E-2,2.3397319E-2,-1.8848209E-2,4.095837E-2,6.475529E-2,1.9425083E-2,7.179735E-2,9.919624E-2,6.8246156E-2],"split_indices":[0,3,2,0,2,0,0,2,4,0,0,4,0,1,4,16,4,4,12,11,4,6,1,4,1,1,4,0,4,3,16,0,0,0,0,0,0,0,0,0,0,0,0,0,0,0,0,0,0,0,0,0,0,0,0,0,0,0,0,0,0,0,0],"split_type":[0,0,0,0,0,0,0,0,0,0,0,0,0,0,0,0,0,0,0,0,0,0,0,0,0,0,0,0,0,0,0,0,0,0,0,0,0,0,0,0,0,0,0,0,0,0,0,0,0,0,0,0,0,0,0,0,0,0,0,0,0,0,0],"sum_hessian":[6.947E3,3.878E3,3.069E3,2.84E3,1.038E3,2.889E3,1.8E2,1.967E3,8.73E2,9.18E2,1.2E2,2.142E3,7.47E2,1.03E2,7.7E1,1.739E3,2.28E2,6.61E2,2.12E2,6.17E2,3.01E2,9.7E1,2.3E1,1.705E3,4.37E2,6.45E2,1.02E2,5E0,9.8E1,2.1E1,5.6E1,1.237E3,5.02E2,5.4E1,1.74E2,3.53E2,3.08E2,2.11E2,1E0,1.73E2,4.44E2,1.59E2,1.42E2,8.7E1,1E1,1.8E1,5E0,9.2E2,7.85E2,4.12E2,2.5E1,6.17E2,2.8E1,8.3E1,1.9E1,2E0,3E0,4.6E1,5.2E1,1E1,1.1E1,3.4E1,2.2E1],"tree_param":{"num_deleted":"0","num_feature":"17","num_nodes":"63","size_leaf_vector":"1"}},{"base_weights":[1.8022474E-3,-2.2937654E-1,2.0550694E-1,-2.769216E-1,1.4667425E-1,1.10951446E-1,3.7831518E-1,-2.0399077E-1,-4.7709852E-1,7.4337974E-2,4.5149136E-1,7.7986896E-2,6.1318636E-1,3.3322135E-1,8.607829E-1,-3.918275E-1,4.2383503E-2,-4.905231E-1,1.471755E-1,3.0046178E-2,5.1614314E-1,2.3667105E-1,7.4704176E-1,1.369541E-3,2.6780576E-1,5.3024423E-1,1.0855892E0,1.8691427E-1,4.4171944E-1,7.5149596E-1,1.1308079E0,-3.9013375E-2,-1.4046726E-2,-1.868396E-2,1.2959103E-2,-3.389295E-2,-5.1931355E-2,-6.6523626E-4,4.176135E-2,1.5997268E-2,-8.833978E-3,2.114181E-2,5.6001708E-2,3.7034936E-2,-2.829439E-3,2.0465633E-2,6.709763E-2,4.6565095E-3,-1.5552444E-2,2.5716586E-2,9.897084E-4,3.9857794E-2,1.1122882E-1,1.05213605E-1,5.612265E-2,8.785118E-3,2.9063016E-2,4.886723E-2,7.3995655E-3,4.8427418E-2,9.177682E-2,3.7859745E-2,9.4907396E-2],"categories":[],"categories_nodes":[],"categories_segments":[],"categories_sizes":[],"default_left":[0,0,0,0,0,0,0,0,0,0,0,0,0,0,0,0,0,0,0,0,0,0,0,0,0,0,0,0,0,0,0,0,0,0,0,0,0,0,0,0,0,0,0,0,0,0,0,0,0,0,0,0,0,0,0,0,0,0,0,0,0,0,0],"id":21,"left_children":[1,3,5,7,9,11,13,15,17,19,21,23,25,27,29,31,33,35,37,39,41,43,45,47,49,51,53,55,57,59,61,-1,-1,-1,-1,-1,-1,-1,-1,-1,-1,-1,-1,-1,-1,-1,-1,-1,-1,-1,-1,-1,-1,-1,-1,-1,-1,-1,-1,-1,-1,-1,-1],"loss_changes":[3.2724377E2,5.82379E1,6.0317856E1,4.2093994E1,8.036493E0,3.9504333E1,2.8126923E1,9.8126274E1,6.5336456E0,5.79629E0,4.2675123E0,3.262052E1,5.1841354E0,1.8902786E1,2.4258423E0,2.4846176E1,3.0334633E1,7.7321014E0,9.9517655E-1,6.490518E0,1.0654678E0,2.6016026E0,1.0914383E0,1.7803764E1,8.835396E0,2.805191E0,9.2897606E-1,6.9089127E0,4.0459503E1,4.048004E0,5.3408813E-1,0E0,0E0,0E0,0E0,0E0,0E0,0E0,0E0,0E0,0E0,0E0,0E0,0E0,0E0,0E0,0E0,0E0,0E0,0E0,0E0,0E0,0E0,0E0,0E0,0E0,0E0,0E0,0E0,0E0,0E0,0E0,0E0],"parents":[2147483647,0,0,1,1,2,2,3,3,4,4,5,5,6,6,7,7,8,8,9,9,10,10,11,11,12,12,13,13,14,14,15,15,16,16,17,17,18,18,19,19,20,20,21,21,22,22,23,23,24,24,25,25,26,26,27,27,28,28,29,29,30,30],"right_children":[2,4,6,8,10,12,14,16,18,20,22,24,26,28,30,32,34,36,38,40,42,44,46,48,50,52,54,56,58,60,62,-1,-1,-1,-1,-1,-1,-1,-1,-1,-1,-1,-1,-1,-1,-1,-1,-1,-1,-1,-1,-1,-1,-1,-1,-1,-1,-1,-1,-1,-1,-1,-1],"split_conditions":[5.756051E-1,3.3257728E0,8.784261E-1,1.1535954E0,-1.6138358E-1,3.3257728E0,1.1043447E0,-5.496531E-1,-1.638038E-1,3.5039806E-1,1.8031058E-1,1.0386158E0,-1.638038E-1,-5.496531E-1,1.2381054E0,1.0386158E0,6.217932E-1,1.6690809E0,1.3969167E0,1.6690809E0,1.6690809E0,-6.301063E-2,-1.5630834E-2,1.1535954E0,1.1535954E0,1.962E1,1.6690809E0,1.0386158E0,1.1535954E0,1.0386158E0,-1.2796167E0,-3.9013375E-2,-1.4046726E-2,-1.868396E-2,1.2959103E-2,-3.389295E-2,-5.1931355E-2,-6.6523626E-4,4.176135E-2,1.5997268E-2,-8.833978E-3,2.114181E-2,5.6001708E-2,3.7034936E-2,-2.829439E-3,2.0465633E-2,6.709763E-2,4.6565095E-3,-1.5552444E-2,2.5716586E-2,9.897084E-4,3.9857794E-2,1.1122882E-1,1.05213605E-1,5.612265E-2,8.785118E-3,2.9063016E-2,4.886723E-2,7.3995655E-3,4.8427418E-2,9.177682E-2,3.7859745E-2,9.4907396E-2],"split_indices":[0,2,0,4,1,2,0,4,1,0,4,3,1,4,0,3,11,16,4,16,16,4,3,4,4,6,16,3,4,3,4,0,0,0,0,0,0,0,0,0,0,0,0,0,0,0,0,0,0,0,0,0,0,0,0,0,0,0,0,0,0,0,0],"split_type":[0,0,0,0,0,0,0,0,0,0,0,0,0,0,0,0,0,0,0,0,0,0,0,0,0,0,0,0,0,0,0,0,0,0,0,0,0,0,0,0,0,0,0,0,0,0,0,0,0,0,0,0,0,0,0,0,0,0,0,0,0,0,0],"sum_hessian":[6.947E3,3.254E3,3.693E3,2.889E3,3.65E2,2.388E3,1.305E3,2.119E3,7.7E2,2.96E2,6.9E1,2.242E3,1.46E2,1.195E3,1.1E2,1.202E3,9.17E2,7.54E2,1.6E1,2.7E2,2.6E1,4.1E1,2.8E1,1.598E3,6.44E2,1.26E2,2E1,5.1E2,6.85E2,8.1E1,2.9E1,8.32E2,3.7E2,2.77E2,6.4E2,5.33E2,2.21E2,1.2E1,4E0,1.22E2,1.48E2,1.2E1,1.4E1,2.2E1,1.9E1,5E0,2.3E1,1.239E3,3.59E2,5.32E2,1.12E2,1.23E2,3E0,1.1E1,9E0,3.56E2,1.54E2,4.61E2,2.24E2,6.1E1,2E1,3E0,2.6E1],"tree_param":{"num_deleted":"0","num_feature":"17","num_nodes":"63","size_leaf_vector":"1"}},{"base_weights":[1.7728909E-3,-1.770964E-1,2.2777686E-1,-2.4721698E-1,1.4808972E-2,2.0310675E-1,7.978638E-1,-1.7890285E-1,-4.2909837E-1,-3.332593E-2,3.8027316E-1,1.2963305E-1,3.92622E-1,1.0528076E0,4.6630466E-1,-3.7429076E-1,4.7672797E-2,-5.5029947E-1,-3.295491E-1,-2.576747E-1,3.978091E-2,2.893782E-1,7.355828E-1,1.0266812E-1,5.828689E-1,3.258838E-1,6.2717056E-1,2.8725377E-1,1.0942249E0,3.7089646E-1,8.315666E-1,-3.1895734E-2,2.9191539E-2,-8.139748E-3,1.4733828E-2,-4.6342354E-2,1.0533856E-2,-2.8051909E-2,-8.301682E-3,-8.960806E-2,-1.733953E-2,-6.9361823E-3,1.4494558E-2,1.8594382E-2,5.7492673E-2,4.4214286E-2,9.53746E-2,1.26273E-2,-8.779454E-3,2.408354E-2,5.3302072E-2,1.630283E-2,3.508563E-2,4.4465557E-2,8.401351E-2,-1.29191205E-2,3.5184935E-2,1.0705953E-1,7.758031E-2,-9.940234E-3,3.571103E-2,-3.0503082E-3,7.378791E-2],"categories":[],"categories_nodes":[],"categories_segments":[],"categories_sizes":[],"default_left":[0,0,0,0,0,0,0,0,0,0,0,0,0,0,0,0,0,0,0,0,0,0,0,0,0,0,0,0,0,0,0,0,0,0,0,0,0,0,0,0,0,0,0,0,0,0,0,0,0,0,0,0,0,0,0,0,0,0,0,0,0,0,0],"id":22,"left_children":[1,3,5,7,9,11,13,15,17,19,21,23,25,27,29,31,33,35,37,39,41,43,45,47,49,51,53,55,57,59,61,-1,-1,-1,-1,-1,-1,-1,-1,-1,-1,-1,-1,-1,-1,-1,-1,-1,-1,-1,-1,-1,-1,-1,-1,-1,-1,-1,-1,-1,-1,-1,-1],"loss_changes":[2.809144E2,5.2201492E1,4.301477E1,3.5222855E1,1.8290325E1,4.094249E1,1.0244247E1,9.152423E1,9.169388E0,1.5083165E1,3.6949387E0,2.5886345E1,1.2662666E1,1.9368896E0,1.6779671E0,2.017044E1,1.9557905E1,6.953987E0,2.0025482E0,7.734934E0,1.2427802E1,2.2287521E0,1.3454428E0,2.3514706E1,2.596653E0,8.743805E0,4.879135E0,4.1332114E-1,7.372513E-1,1.8123031E0,9.036522E-1,0E0,0E0,0E0,0E0,0E0,0E0,0E0,0E0,0E0,0E0,0E0,0E0,0E0,0E0,0E0,0E0,0E0,0E0,0E0,0E0,0E0,0E0,0E0,0E0,0E0,0E0,0E0,0E0,0E0,0E0,0E0,0E0],"parents":[2147483647,0,0,1,1,2,2,3,3,4,4,5,5,6,6,7,7,8,8,9,9,10,10,11,11,12,12,13,13,14,14,15,15,16,16,17,17,18,18,19,19,20,20,21,21,22,22,23,23,24,24,25,25,26,26,27,27,28,28,29,29,30,30],"right_children":[2,4,6,8,10,12,14,16,18,20,22,24,26,28,30,32,34,36,38,40,42,44,46,48,50,52,54,56,58,60,62,-1,-1,-1,-1,-1,-1,-1,-1,-1,-1,-1,-1,-1,-1,-1,-1,-1,-1,-1,-1,-1,-1,-1,-1,-1,-1,-1,-1,-1,-1,-1,-1],"split_conditions":[6.82501E-1,1.0386158E0,-1.638038E-1,1.1535954E0,3.3257728E0,1.0386158E0,1.1535954E0,-5.496531E-1,-1.2069645E0,6.217932E-1,-1.0286707E0,3.3257728E0,9.4193107E-1,7.190439E-1,1.0386158E0,3.9316267E-1,6.66953E-1,-1.638038E-1,3.3257728E0,-4.4165206E-1,-5.496531E-1,1.962E1,1.6970485E0,1.1535954E0,-7.929743E-1,-5.496531E-1,1.1043447E0,1.3828373E0,-5.427541E-1,7.9805213E-1,7.456189E-1,-3.1895734E-2,2.9191539E-2,-8.139748E-3,1.4733828E-2,-4.6342354E-2,1.0533856E-2,-2.8051909E-2,-8.301682E-3,-8.960806E-2,-1.733953E-2,-6.9361823E-3,1.4494558E-2,1.8594382E-2,5.7492673E-2,4.4214286E-2,9.53746E-2,1.26273E-2,-8.779454E-3,2.408354E-2,5.3302072E-2,1.630283E-2,3.508563E-2,4.4465557E-2,8.401351E-2,-1.29191205E-2,3.5184935E-2,1.0705953E-1,7.758031E-2,-9.940234E-3,3.571103E-2,-3.0503082E-3,7.378791E-2],"split_indices":[0,3,1,4,2,3,4,4,0,11,0,2,0,0,3,1,4,1,2,1,4,6,1,4,4,4,0,1,3,0,0,0,0,0,0,0,0,0,0,0,0,0,0,0,0,0,0,0,0,0,0,0,0,0,0,0,0,0,0,0,0,0,0],"split_type":[0,0,0,0,0,0,0,0,0,0,0,0,0,0,0,0,0,0,0,0,0,0,0,0,0,0,0,0,0,0,0,0,0,0,0,0,0,0,0,0,0,0,0,0,0,0,0,0,0,0,0,0,0,0,0,0,0,0,0,0,0,0,0],"sum_hessian":[6.947E3,3.878E3,3.069E3,2.84E3,1.038E3,2.943E3,1.26E2,2.066E3,7.74E2,9.18E2,1.2E2,2.122E3,8.21E2,7E1,5.6E1,1.109E3,9.57E2,3.47E2,4.27E2,2.25E2,6.93E2,9.7E1,2.3E1,2.004E3,1.18E2,6.41E2,1.8E2,4E0,6.6E1,4.6E1,1E1,1.074E3,3.5E1,4.57E2,5E2,3.33E2,1.4E1,3.9E2,3.7E1,9E0,2.16E2,3.66E2,3.27E2,8.7E1,1E1,1.8E1,5E0,1.591E3,4.13E2,2.8E1,9E1,3.09E2,3.32E2,1.56E2,2.4E1,1E0,3E0,1.9E1,4.7E1,6E0,4E1,1E0,9E0],"tree_param":{"num_deleted":"0","num_feature":"17","num_nodes":"63","size_leaf_vector":"1"}},{"base_weights":[1.7191434E-3,-2.354778E-1,1.5117006E-1,-2.8040978E-1,9.065689E-2,7.334572E-2,3.273211E-1,-2.1692653E-1,-4.3931445E-1,2.3388094E-1,-2.6813064E-2,4.2671166E-2,5.276586E-1,2.8672627E-1,7.6177245E-1,-3.415841E-1,-1.2052728E-1,-4.6943995E-1,2.2202353E-1,-1.484547E-2,3.9157262E-1,8.635367E-2,-3.5834995E-1,-2.6179835E-2,2.1885374E-1,4.9244407E-1,1.20631166E-1,1.5148924E-1,3.8704607E-1,5.9141713E-1,9.1278595E-1,-3.3621978E-2,-1.3677842E-2,8.271701E-3,-3.1034313E-2,-4.3636773E-2,-2.0064311E-2,-4.949967E-3,3.1171372E-2,-1.2994873E-2,1.734489E-2,6.561634E-2,2.1841837E-2,-3.238836E-3,5.397372E-2,-3.5422493E-2,1.4024554E-2,-1.1599145E-2,4.4857464E-3,2.1899581E-2,-3.9854366E-3,3.491658E-2,7.392916E-2,6.9171074E-3,2.4022408E-2,4.297575E-2,6.1612986E-3,5.5111274E-2,6.71167E-3,2.9169273E-2,7.667862E-2],"categories":[],"categories_nodes":[],"categories_segments":[],"categories_sizes":[],"default_left":[0,0,0,0,0,0,0,0,0,0,0,0,0,0,0,0,0,0,0,0,0,0,0,0,0,0,0,0,0,0,0,0,0,0,0,0,0,0,0,0,0,0,0,0,0,0,0,0,0,0,0,0,0,0,0,0,0,0,0,0,0],"id":23,"left_children":[1,3,5,7,9,11,13,15,17,19,21,23,25,27,29,31,33,35,37,39,41,43,45,47,49,51,-1,53,55,57,59,-1,-1,-1,-1,-1,-1,-1,-1,-1,-1,-1,-1,-1,-1,-1,-1,-1,-1,-1,-1,-1,-1,-1,-1,-1,-1,-1,-1,-1,-1],"loss_changes":[2.4633734E2,3.9385757E1,5.8416786E1,2.3721954E1,5.491065E0,4.1199707E1,2.281482E1,2.0255363E1,1.3512512E1,5.7714596E0,6.784355E0,3.363105E1,5.712387E0,1.6167435E1,2.3157425E0,9.809311E0,5.7163273E1,1.0566895E1,1.4517075E0,2.0182552E0,4.3493357E0,1.0101246E1,2.1502585E0,1.9494051E1,1.1502064E1,3.9952126E0,0E0,4.9180555E0,3.1892784E1,2.6630592E0,1.0783501E0,0E0,0E0,0E0,0E0,0E0,0E0,0E0,0E0,0E0,0E0,0E0,0E0,0E0,0E0,0E0,0E0,0E0,0E0,0E0,0E0,0E0,0E0,0E0,0E0,0E0,0E0,0E0,0E0,0E0,0E0],"parents":[2147483647,0,0,1,1,2,2,3,3,4,4,5,5,6,6,7,7,8,8,9,9,10,10,11,11,12,12,13,13,14,14,15,15,16,16,17,17,18,18,19,19,20,20,21,21,22,22,23,23,24,24,25,25,27,27,28,28,29,29,30,30],"right_children":[2,4,6,8,10,12,14,16,18,20,22,24,26,28,30,32,34,36,38,40,42,44,46,48,50,52,-1,54,56,58,60,-1,-1,-1,-1,-1,-1,-1,-1,-1,-1,-1,-1,-1,-1,-1,-1,-1,-1,-1,-1,-1,-1,-1,-1,-1,-1,-1,-1,-1,-1],"split_conditions":[2.6582313E-1,3.3257728E0,8.784261E-1,1.6690809E0,1.6690809E0,3.3257728E0,1.1043447E0,-5.496531E-1,9.7520196E-1,-5.496531E-1,1.1535954E0,1.0386158E0,1.962E1,-5.496531E-1,1.1836908E0,1.0386158E0,1.1535954E0,1.0386158E0,-1.5630834E-2,-1.2172647E0,-1.8467125E-1,6.66953E-1,-1.638038E-1,-5.496531E-1,1.1535954E0,2.195091E0,1.20631166E-1,1.0386158E0,1.1535954E0,1.275256E0,-1.2796167E0,-3.3621978E-2,-1.3677842E-2,8.271701E-3,-3.1034313E-2,-4.3636773E-2,-2.0064311E-2,-4.949967E-3,3.1171372E-2,-1.2994873E-2,1.734489E-2,6.561634E-2,2.1841837E-2,-3.238836E-3,5.397372E-2,-3.5422493E-2,1.4024554E-2,-1.1599145E-2,4.4857464E-3,2.1899581E-2,-3.9854366E-3,3.491658E-2,7.392916E-2,6.9171074E-3,2.4022408E-2,4.297575E-2,6.1612986E-3,5.5111274E-2,6.71167E-3,2.9169273E-2,7.667862E-2],"split_indices":[0,2,0,16,16,2,0,4,1,4,4,3,6,4,0,3,4,3,3,0,4,4,1,4,4,1,0,3,4,4,4,0,0,0,0,0,0,0,0,0,0,0,0,0,0,0,0,0,0,0,0,0,0,0,0,0,0,0,0,0,0],"split_type":[0,0,0,0,0,0,0,0,0,0,0,0,0,0,0,0,0,0,0,0,0,0,0,0,0,0,0,0,0,0,0,0,0,0,0,0,0,0,0,0,0,0,0,0,0,0,0,0,0,0,0,0,0,0,0,0,0,0,0,0,0],"sum_hessian":[6.947E3,2.685E3,4.262E3,2.36E3,3.25E2,2.957E3,1.305E3,1.688E3,6.72E2,1.46E2,1.79E2,2.771E3,1.86E2,1.195E3,1.1E2,7.35E2,9.53E2,6.43E2,2.9E1,5.7E1,8.9E1,1.34E2,4.5E1,1.993E3,7.78E2,1.81E2,5E0,5.1E2,6.85E2,5.4E1,5.6E1,5.02E2,2.33E2,5.19E2,4.34E2,4.76E2,1.67E2,1.1E1,1.8E1,3.5E1,2.2E1,1.8E1,7.1E1,1.11E2,2.3E1,3.9E1,6E0,8.15E2,1.178E3,6.46E2,1.32E2,1.62E2,1.9E1,3.56E2,1.54E2,4.61E2,2.24E2,4.5E1,9E0,5E0,5.1E1],"tree_param":{"num_deleted":"0","num_feature":"17","num_nodes":"61","size_leaf_vector":"1"}},{"base_weights":[1.6538376E-3,-2.1663451E-1,1.3919099E-1,-2.5802255E-1,8.37758E-2,5.954044E-2,2.8662455E-1,-3.1415457E-1,-1.0058244E-1,-4.0270638E-1,1.1351407E-1,1.1399693E-1,-1.3584414E-1,2.5671783E-1,7.6187474E-1,-2.5236458E-1,-4.6560952E-1,-8.0094926E-2,-8.870372E-2,-6.013221E-1,3.9394643E-2,4.1283377E-2,2.77515E-1,-3.883697E-2,3.0893305E-1,-1.6005264E-1,2.7471146E-1,2.3263389E-1,8.449532E-1,9.5051837E-1,4.8864573E-1,-3.0937582E-2,-1.281601E-2,-4.015315E-2,1.5441688E-2,-1.5442806E-2,8.500597E-4,2.5304278E-2,-5.468672E-2,8.404577E-3,-1.4152863E-2,1.807096E-2,5.172291E-2,-4.0842625E-3,6.6004544E-2,1.8824657E-2,4.1541904E-2,-1.821546E-2,-2.90492E-3,8.51005E-3,7.270482E-2,1.2541202E-2,3.424907E-2,2.7224667E-2,7.108892E-2,5.3766612E-2,8.151664E-2,2.6931731E-2,6.649041E-2],"categories":[],"categories_nodes":[],"categories_segments":[],"categories_sizes":[],"default_left":[0,0,0,0,0,0,0,0,0,0,0,0,0,0,0,0,0,0,0,0,0,0,0,0,0,0,0,0,0,0,0,0,0,0,0,0,0,0,0,0,0,0,0,0,0,0,0,0,0,0,0,0,0,0,0,0,0,0,0],"id":24,"left_children":[1,3,5,7,9,11,13,15,17,19,21,23,25,27,29,31,33,-1,35,37,-1,39,41,43,45,47,49,51,53,55,57,-1,-1,-1,-1,-1,-1,-1,-1,-1,-1,-1,-1,-1,-1,-1,-1,-1,-1,-1,-1,-1,-1,-1,-1,-1,-1,-1,-1],"loss_changes":[2.0862828E2,3.3417694E1,5.0044037E1,2.0833572E1,4.762E0,2.947753E1,2.10531E1,1.6166122E1,6.5653653E0,3.6740975E0,3.6370802E0,6.4543304E1,6.047084E0,1.9750618E1,4.071308E0,1.5267921E1,1.2124367E1,0E0,6.3754063E0,1.4239902E0,0E0,3.010328E0,1.6448283E0,1.2864739E1,1.4620766E1,4.77096E0,3.532538E0,2.0013802E1,9.0935135E-1,2.8703308E-1,1.6983805E0,0E0,0E0,0E0,0E0,0E0,0E0,0E0,0E0,0E0,0E0,0E0,0E0,0E0,0E0,0E0,0E0,0E0,0E0,0E0,0E0,0E0,0E0,0E0,0E0,0E0,0E0,0E0,0E0],"parents":[2147483647,0,0,1,1,2,2,3,3,4,4,5,5,6,6,7,7,8,8,9,9,10,10,11,11,12,12,13,13,14,14,15,15,16,16,18,18,19,19,21,21,22,22,23,23,24,24,25,25,26,26,27,27,28,28,29,29,30,30],"right_children":[2,4,6,8,10,12,14,16,18,20,22,24,26,28,30,32,34,-1,36,38,-1,40,42,44,46,48,50,52,54,56,58,-1,-1,-1,-1,-1,-1,-1,-1,-1,-1,-1,-1,-1,-1,-1,-1,-1,-1,-1,-1,-1,-1,-1,-1,-1,-1,-1,-1],"split_conditions":[2.6582313E-1,3.3257728E0,8.60435E-1,1.0386158E0,-7.507956E-1,1.1535954E0,-1.638038E-1,1.6690809E0,-4.4165206E-1,2.3095121E1,1.0386158E0,-5.496531E-1,3.3257728E0,1.1836908E0,1.1535954E0,-5.496531E-1,9.7520196E-1,-8.0094926E-2,-5.496531E-1,-1.3839548E0,3.9394643E-2,1.1535954E0,1.962E1,5.094173E-1,1.0386158E0,7.5789356E-1,1.565739E0,1.0386158E0,-1.2796167E0,-7.929743E-1,3.5357392E0,-3.0937582E-2,-1.281601E-2,-4.015315E-2,1.5441688E-2,-1.5442806E-2,8.500597E-4,2.5304278E-2,-5.468672E-2,8.404577E-3,-1.4152863E-2,1.807096E-2,5.172291E-2,-4.0842625E-3,6.6004544E-2,1.8824657E-2,4.1541904E-2,-1.821546E-2,-2.90492E-3,8.51005E-3,7.270482E-2,1.2541202E-2,3.424907E-2,2.7224667E-2,7.108892E-2,5.3766612E-2,8.151664E-2,2.6931731E-2,6.649041E-2],"split_indices":[0,2,0,3,1,4,1,16,1,12,3,4,2,0,4,4,1,0,4,0,0,4,6,1,3,0,3,3,4,4,1,0,0,0,0,0,0,0,0,0,0,0,0,0,0,0,0,0,0,0,0,0,0,0,0,0,0,0,0],"split_type":[0,0,0,0,0,0,0,0,0,0,0,0,0,0,0,0,0,0,0,0,0,0,0,0,0,0,0,0,0,0,0,0,0,0,0,0,0,0,0,0,0,0,0,0,0,0,0,0,0,0,0,0,0,0,0,0,0,0,0],"sum_hessian":[6.947E3,2.685E3,4.262E3,2.36E3,3.25E2,2.768E3,1.494E3,1.739E3,6.21E2,1.8E1,3.07E2,2.165E3,6.03E2,1.407E3,8.7E1,1.237E3,5.02E2,7E0,6.14E2,1.5E1,3E0,2.14E2,9.3E1,1.214E3,9.51E2,5.7E2,3.3E1,1.353E3,5.4E1,5E1,3.7E1,5.02E2,7.35E2,4.76E2,2.6E1,2.99E2,3.15E2,1E0,1.4E1,1.66E2,4.8E1,8.3E1,1E1,1.198E3,1.6E1,7.06E2,2.45E2,3.68E2,2.02E2,2.7E1,6E0,9.76E2,3.77E2,5E0,4.9E1,1.2E1,3.8E1,2.7E1,1E1],"tree_param":{"num_deleted":"0","num_feature":"17","num_nodes":"59","size_leaf_vector":"1"}},{"base_weights":[1.5887812E-3,-1.3289425E-1,1.915922E-1,-7.238639E-2,-3.1042707E-1,1.6967376E-1,6.8570185E-1,-2.2939546E-1,1.24920234E-1,-3.3263648E-1,2.6472715E-1,1.0930847E-1,3.2490242E-1,9.0225935E-1,4.0549076E-1,-3.0275598E-1,-1.00552075E-1,6.0624484E-2,3.1349424E-1,-3.421043E-1,1.0539011E0,1.4426321E-1,6.502444E-1,1.5746905E-1,-7.5299636E-2,2.8851816E-1,6.495587E-1,8.538914E-1,1.3324814E-1,3.1919882E-1,7.216404E-1,-2.5772573E-2,2.010251E-2,-1.0046774E-2,2.262824E-2,-5.2449415E-3,1.4126469E-2,1.5402118E-2,4.6776168E-2,-3.504019E-2,-2.1341503E-2,3.7030973E-2,1.1051517E-1,-1.5592734E-2,2.3350004E-2,5.718834E-2,5.334625E-3,3.3033707E-3,3.4283444E-2,-8.033963E-3,2.2934584E-2,1.4497872E-2,3.1477E-2,4.2760275E-2,6.9399476E-2,4.9638484E-2,7.37766E-2,-1.6257316E-2,3.0009812E-2,-2.0402907E-3,6.3912414E-2],"categories":[],"categories_nodes":[],"categories_segments":[],"categories_sizes":[],"default_left":[0,0,0,0,0,0,0,0,0,0,0,0,0,0,0,0,0,0,0,0,0,0,0,0,0,0,0,0,0,0,0,0,0,0,0,0,0,0,0,0,0,0,0,0,0,0,0,0,0,0,0,0,0,0,0,0,0,0,0,0,0],"id":25,"left_children":[1,3,5,7,9,11,13,15,17,19,21,23,25,27,29,31,33,35,37,39,41,43,45,47,49,51,53,55,-1,57,59,-1,-1,-1,-1,-1,-1,-1,-1,-1,-1,-1,-1,-1,-1,-1,-1,-1,-1,-1,-1,-1,-1,-1,-1,-1,-1,-1,-1,-1,-1],"loss_changes":[1.775624E2,4.3687256E1,3.1074371E1,9.408069E1,1.3296211E1,2.581749E1,7.037327E0,1.5952919E1,1.6300583E1,1.3435493E1,1.7173901E0,1.7686834E1,8.93174E0,1.0884094E0,1.2701168E0,1.16576E1,5.938061E0,1.4716841E1,1.1107567E1,7.035446E0,7.156086E-1,1.6089308E0,2.916658E-1,4.964605E1,3.775832E0,7.765648E0,1.4670601E0,4.8020554E-1,0E0,1.3909278E0,6.5538216E-1,0E0,0E0,0E0,0E0,0E0,0E0,0E0,0E0,0E0,0E0,0E0,0E0,0E0,0E0,0E0,0E0,0E0,0E0,0E0,0E0,0E0,0E0,0E0,0E0,0E0,0E0,0E0,0E0,0E0,0E0],"parents":[2147483647,0,0,1,1,2,2,3,3,4,4,5,5,6,6,7,7,8,8,9,9,10,10,11,11,12,12,13,13,14,14,15,15,16,16,17,17,18,18,19,19,20,20,21,21,22,22,23,23,24,24,25,25,26,26,27,27,29,29,30,30],"right_children":[2,4,6,8,10,12,14,16,18,20,22,24,26,28,30,32,34,36,38,40,42,44,46,48,50,52,54,56,-1,58,60,-1,-1,-1,-1,-1,-1,-1,-1,-1,-1,-1,-1,-1,-1,-1,-1,-1,-1,-1,-1,-1,-1,-1,-1,-1,-1,-1,-1,-1,-1],"split_conditions":[7.1150386E-1,1.1535954E0,-1.638038E-1,-5.496531E-1,8.776562E-2,1.0386158E0,1.1535954E0,-1.0286707E0,1.0386158E0,2.3095121E1,1.565739E0,1.1535954E0,1.012104E0,2.3095121E1,1.0386158E0,2.2829255E-1,3.3257728E0,6.66953E-1,4.94899E-1,-1.2069645E0,-7.507956E-1,1.275256E0,-1.1233026E0,7.886136E-1,1.075203E0,-5.496531E-1,1.1043447E0,-7.929743E-1,1.3324814E-1,7.9805213E-1,7.456189E-1,-2.5772573E-2,2.010251E-2,-1.0046774E-2,2.262824E-2,-5.2449415E-3,1.4126469E-2,1.5402118E-2,4.6776168E-2,-3.504019E-2,-2.1341503E-2,3.7030973E-2,1.1051517E-1,-1.5592734E-2,2.3350004E-2,5.718834E-2,5.334625E-3,3.3033707E-3,3.4283444E-2,-8.033963E-3,2.2934584E-2,1.4497872E-2,3.1477E-2,4.2760275E-2,6.9399476E-2,4.9638484E-2,7.37766E-2,-1.6257316E-2,3.0009812E-2,-2.0402907E-3,6.3912414E-2],"split_indices":[0,4,1,4,1,3,4,0,3,12,3,4,0,12,3,1,2,4,0,0,1,4,0,4,0,4,0,4,0,0,0,0,0,0,0,0,0,0,0,0,0,0,0,0,0,0,0,0,0,0,0,0,0,0,0,0,0,0,0,0,0],"split_type":[0,0,0,0,0,0,0,0,0,0,0,0,0,0,0,0,0,0,0,0,0,0,0,0,0,0,0,0,0,0,0,0,0,0,0,0,0,0,0,0,0,0,0,0,0,0,0,0,0,0,0,0,0,0,0,0,0,0,0,0,0],"sum_hessian":[6.947E3,4.068E3,2.879E3,3.035E3,1.033E3,2.758E3,1.21E2,1.69E3,1.345E3,9.95E2,3.8E1,1.987E3,7.71E2,6.7E1,5.4E1,1.076E3,6.14E2,1.004E3,3.41E2,9.89E2,6E0,3E1,8E0,1.576E3,4.11E2,6.95E2,7.6E1,6.5E1,2E0,4.4E1,1E1,1.04E3,3.6E1,5.77E2,3.7E1,4.81E2,5.23E2,2.37E2,1.04E2,4.33E2,5.56E2,3E0,3E0,9E0,2.1E1,7E0,1E0,1.104E3,4.72E2,3.85E2,2.6E1,3.45E2,3.5E2,5.2E1,2.4E1,1.7E1,4.8E1,4E0,4E1,1E0,9E0],"tree_param":{"num_deleted":"0","num_feature":"17","num_nodes":"61","size_leaf_vector":"1"}},{"base_weights":[1.5742427E-3,-1.8466768E-1,1.1891983E-1,-2.2186491E-1,8.529346E-2,9.3446985E-2,5.2399164E-1,-1.6646785E-1,-3.6056292E-1,2.0925422E-1,-1.6415026E-2,3.4867283E-2,2.5571963E-1,4.2391637E-1,7.300282E-1,-1.14139356E-1,-3.1705585E-1,-3.8504297E-1,1.7696086E-1,-4.7611613E-3,3.448502E-1,-5.396045E-1,3.4417983E-2,-2.2713624E-2,1.8018818E-1,2.1022263E-1,5.1721996E-1,3.6339355E-1,7.497986E-1,5.670957E-1,9.3857914E-1,-2.103894E-2,7.7405153E-3,8.021372E-2,-2.579256E-2,-3.5616025E-2,-1.695577E-2,-6.8082553E-3,2.66529E-2,-1.1132492E-2,1.6464256E-2,6.0020924E-2,1.8646164E-2,2.3727054E-2,-4.9209855E-2,9.239429E-3,-1.7746268E-2,-2.1635352E-3,1.2020355E-1,-3.783155E-3,1.8265592E-2,6.944336E-3,2.4271552E-2,3.56018E-2,6.564312E-2,3.400798E-2,5.8719264E-3,7.827454E-2,2.7926214E-2,5.4198615E-2,1.0780927E-3,9.5052384E-2,5.635747E-2],"categories":[],"categories_nodes":[],"categories_segments":[],"categories_sizes":[],"default_left":[0,0,0,0,0,0,0,0,0,0,0,0,0,0,0,0,0,0,0,0,0,0,0,0,0,0,0,0,0,0,0,0,0,0,0,0,0,0,0,0,0,0,0,0,0,0,0,0,0,0,0,0,0,0,0,0,0,0,0,0,0,0,0],"id":26,"left_children":[1,3,5,7,9,11,13,15,17,19,21,23,25,27,29,31,33,35,37,39,41,43,45,47,49,51,53,55,57,59,61,-1,-1,-1,-1,-1,-1,-1,-1,-1,-1,-1,-1,-1,-1,-1,-1,-1,-1,-1,-1,-1,-1,-1,-1,-1,-1,-1,-1,-1,-1,-1,-1],"loss_changes":[1.5186818E2,2.699121E1,4.3938076E1,1.8080643E1,4.113597E0,3.812868E1,4.8865585E0,1.3273201E1,8.923874E0,4.2675276E0,4.805725E0,2.4680468E1,1.2550194E1,3.119936E0,2.2200928E0,3.9421513E1,3.3952637E0,6.6116104E0,1.2563884E0,1.6699688E0,3.9034004E0,1.1928096E0,3.4535177E0,1.3997489E1,9.175018E0,1.041486E1,3.0729675E0,2.599287E0,2.0405226E0,2.9242659E0,1.1495476E0,0E0,0E0,0E0,0E0,0E0,0E0,0E0,0E0,0E0,0E0,0E0,0E0,0E0,0E0,0E0,0E0,0E0,0E0,0E0,0E0,0E0,0E0,0E0,0E0,0E0,0E0,0E0,0E0,0E0,0E0,0E0,0E0],"parents":[2147483647,0,0,1,1,2,2,3,3,4,4,5,5,6,6,7,7,8,8,9,9,10,10,11,11,12,12,13,13,14,14,15,15,16,16,17,17,18,18,19,19,20,20,21,21,22,22,23,23,24,24,25,25,26,26,27,27,28,28,29,29,30,30],"right_children":[2,4,6,8,10,12,14,16,18,20,22,24,26,28,30,32,34,36,38,40,42,44,46,48,50,52,54,56,58,60,62,-1,-1,-1,-1,-1,-1,-1,-1,-1,-1,-1,-1,-1,-1,-1,-1,-1,-1,-1,-1,-1,-1,-1,-1,-1,-1,-1,-1,-1,-1,-1,-1],"split_conditions":[2.6582313E-1,3.3257728E0,3.3257728E0,1.6690809E0,1.6690809E0,8.957409E-1,8.5683197E-1,1.1535954E0,9.7520196E-1,-5.496531E-1,-7.507956E-1,1.0386158E0,1.075203E0,1.565739E0,1.8031058E-1,-5.496531E-1,-7.3236245E-1,1.0386158E0,-1.5630834E-2,-1.2172647E0,-1.8467125E-1,-1.3839548E0,1.1535954E0,2.3095121E1,6.217932E-1,-5.496531E-1,1.2381054E0,1.1535954E0,